{"learner":{"attributes":{"scikit_learn":"{\"_estimator_type\": \"regressor\"}"},"feature_names":[],"feature_types":[],"gradient_booster":{"model":{"cats":{"enc":[],"feature_segments":[],"sorted_idx":[]},"gbtree_model_param":{"num_parallel_tree":"1","num_trees":"200"},"iteration_indptr":[0,1,2,3,4,5,6,7,8,9,10,11,12,13,14,15,16,17,18,19,20,21,22,23,24,25,26,27,28,29,30,31,32,33,34,35,36,37,38,39,40,41,42,43,44,45,46,47,48,49,50,51,52,53,54,55,56,57,58,59,60,61,62,63,64,65,66,67,68,69,70,71,72,73,74,75,76,77,78,79,80,81,82,83,84,85,86,87,88,89,90,91,92,93,94,95,96,97,98,99,100,101,102,103,104,105,106,107,108,109,110,111,112,113,114,115,116,117,118,119,120,121,122,123,124,125,126,127,128,129,130,131,132,133,134,135,136,137,138,139,140,141,142,143,144,145,146,147,148,149,150,151,152,153,154,155,156,157,158,159,160,161,162,163,164,165,166,167,168,169,170,171,172,173,174,175,176,177,178,179,180,181,182,183,184,185,186,187,188,189,190,191,192,193,194,195,196,197,198,199,200],"tree_info":[0,0,0,0,0,0,0,0,0,0,0,0,0,0,0,0,0,0,0,0,0,0,0,0,0,0,0,0,0,0,0,0,0,0,0,0,0,0,0,0,0,0,0,0,0,0,0,0,0,0,0,0,0,0,0,0,0,0,0,0,0,0,0,0,0,0,0,0,0,0,0,0,0,0,0,0,0,0,0,0,0,0,0,0,0,0,0,0,0,0,0,0,0,0,0,0,0,0,0,0,0,0,0,0,0,0,0,0,0,0,0,0,0,0,0,0,0,0,0,0,0,0,0,0,0,0,0,0,0,0,0,0,0,0,0,0,0,0,0,0,0,0,0,0,0,0,0,0,0,0,0,0,0,0,0,0,0,0,0,0,0,0,0,0,0,0,0,0,0,0,0,0,0,0,0,0,0,0,0,0,0,0,0,0,0,0,0,0,0,0,0,0,0,0,0,0,0,0,0,0],"trees":[{"base_weights":[-5.045403E-3,-2.0199455E-1,3.5054097E-1,-3.5609248E-1,-7.5792186E-2,2.2853774E-1,8.324275E-1,-5.063778E-1,-3.112156E-1,1.7134254E-1,-1.3266145E-1,4.5150858E-1,1.2120439E-1,6.479469E-1,1.0723968E0,-5.753894E-1,6.7354916E-3,-9.385438E-2,-3.4490627E-1,-8.133925E-2,2.4157323E-1,1.1712744E-1,-1.4316872E-1,3.8117704E-1,7.554764E-1,-6.1095064E-3,2.4608395E-1,5.604976E-1,9.037678E-1,9.802055E-1,1.3294964E0,-6.445094E-1,-5.071159E-1,2.2599743E-1,-5.4280743E-2,-1.8232787E-1,3.0626101E-2,-4.725214E-2,-3.5566145E-1,-1.5981251E-1,3.6958516E-2,1.9643287E-1,5.79415E-1,1.6969709E-1,-1.7117313E-1,-1.5464102E-1,1.0360406E-1,2.986496E-1,5.4359186E-1,6.247614E-1,8.745434E-1,-5.1236536E-2,1.1635453E-1,6.555384E-1,2.2487961E-1,5.2071923E-1,9.468338E-1,1.0054934E0,5.181096E-1,9.963025E-1,5.1544863E-1,1.1139601E-1,4.118288E-2,-5.598319E-2,-3.8248442E-2,-1.1855168E-2,-4.1435346E-2,2.8247561E-2,-4.7756843E-3,-7.6092123E-3,1.3015091E-2,-1.1590694E-2,-3.894811E-2,7.873692E-3,-4.245943E-3,-1.5384535E-2,1.0655876E-2,-3.1664018E-2,-2.2284353E-2,-1.727459E-2,-0E0,8.415849E-3,-8.992035E-3,4.9864757E-3,2.5533088E-2,3.3851855E-2,5.4261684E-2,-1.9187855E-3,1.9435575E-2,-2.2923958E-2,-8.481013E-4,-1.759191E-2,-1.0366931E-2,2.2175312E-2,4.834126E-3,1.9761162E-2,6.1963677E-2,4.4680007E-2,-9.513004E-3,6.084529E-2,3.605078E-2,5.1171713E-2,8.5756645E-2,-4.9799858E-3,2.1236181E-2,8.4001785E-3,3.92652E-2,3.2531377E-2,6.699778E-2,1.713587E-2,4.3654718E-2,3.779167E-2,6.5934286E-2,8.2268246E-2,3.3615004E-2,1.0408093E-1,6.462192E-2,4.801184E-2,9.397361E-3,8.1139565E-2,4.072329E-2,-1.0864906E-3,7.52493E-2],"categories":[],"categories_nodes":[],"categories_segments":[],"categories_sizes":[],"default_left":[0,0,0,0,0,0,0,0,0,0,0,0,0,0,0,0,0,0,0,0,0,0,0,0,0,0,0,0,0,0,0,0,0,0,0,0,0,0,0,0,0,0,0,0,0,0,0,0,0,0,0,0,0,0,0,0,0,0,0,0,0,0,0,0,0,0,0,0,0,0,0,0,0,0,0,0,0,0,0,0,0,0,0,0,0,0,0,0,0,0,0,0,0,0,0,0,0,0,0,0,0,0,0,0,0,0,0,0,0,0,0,0,0,0,0,0,0,0,0,0,0,0,0],"id":0,"left_children":[1,3,5,7,9,11,13,15,17,19,21,23,25,27,29,31,33,35,37,39,41,43,45,47,49,51,53,55,57,59,61,63,65,67,69,71,73,75,77,79,81,83,85,87,89,91,93,95,97,99,101,103,105,107,109,111,113,115,117,119,121,-1,-1,-1,-1,-1,-1,-1,-1,-1,-1,-1,-1,-1,-1,-1,-1,-1,-1,-1,-1,-1,-1,-1,-1,-1,-1,-1,-1,-1,-1,-1,-1,-1,-1,-1,-1,-1,-1,-1,-1,-1,-1,-1,-1,-1,-1,-1,-1,-1,-1,-1,-1,-1,-1,-1,-1,-1,-1,-1,-1,-1,-1],"loss_changes":[4.2067075E2,7.511397E1,1.2557672E2,1.1495789E1,2.991251E1,4.081208E1,1.825763E1,1.4154213E1,9.758606E0,7.098586E0,4.559925E0,1.1463455E1,1.840463E1,4.872734E0,2.874466E0,1.2143784E0,6.7160887E-1,2.0251603E0,3.662857E0,8.25831E-1,4.5666904E0,1.0898101E0,4.7234993E0,5.8252945E0,9.06765E-1,3.1660988E0,4.8349495E0,2.2339973E0,1.7197952E0,3.9013672E-1,1.4517517E0,1.1114502E0,5.6383514E-1,4.4983703E-1,3.4538984E-1,1.0863721E0,4.4101816E-1,1.1308833E0,3.2917786E0,4.6482325E-1,3.678309E-1,4.5009413E0,1.589737E-1,8.7892735E-1,1.7103526E-1,2.5329285E0,5.041232E-1,7.152117E0,1.6017685E0,7.894459E-1,1.5081406E0,1.4610735E0,5.435333E-1,8.029518E-1,1.7157383E0,2.0032387E0,1.09954834E-1,1.4843941E0,3.5076237E-1,5.1161194E-1,1.6799625E0,0E0,0E0,0E0,0E0,0E0,0E0,0E0,0E0,0E0,0E0,0E0,0E0,0E0,0E0,0E0,0E0,0E0,0E0,0E0,0E0,0E0,0E0,0E0,0E0,0E0,0E0,0E0,0E0,0E0,0E0,0E0,0E0,0E0,0E0,0E0,0E0,0E0,0E0,0E0,0E0,0E0,0E0,0E0,0E0,0E0,0E0,0E0,0E0,0E0,0E0,0E0,0E0,0E0,0E0,0E0,0E0,0E0,0E0,0E0,0E0,0E0,0E0],"parents":[2147483647,0,0,1,1,2,2,3,3,4,4,5,5,6,6,7,7,8,8,9,9,10,10,11,11,12,12,13,13,14,14,15,15,16,16,17,17,18,18,19,19,20,20,21,21,22,22,23,23,24,24,25,25,26,26,27,27,28,28,29,29,30,30,31,31,32,32,33,33,34,34,35,35,36,36,37,37,38,38,39,39,40,40,41,41,42,42,43,43,44,44,45,45,46,46,47,47,48,48,49,49,50,50,51,51,52,52,53,53,54,54,55,55,56,56,57,57,58,58,59,59,60,60],"right_children":[2,4,6,8,10,12,14,16,18,20,22,24,26,28,30,32,34,36,38,40,42,44,46,48,50,52,54,56,58,60,62,64,66,68,70,72,74,76,78,80,82,84,86,88,90,92,94,96,98,100,102,104,106,108,110,112,114,116,118,120,122,-1,-1,-1,-1,-1,-1,-1,-1,-1,-1,-1,-1,-1,-1,-1,-1,-1,-1,-1,-1,-1,-1,-1,-1,-1,-1,-1,-1,-1,-1,-1,-1,-1,-1,-1,-1,-1,-1,-1,-1,-1,-1,-1,-1,-1,-1,-1,-1,-1,-1,-1,-1,-1,-1,-1,-1,-1,-1,-1,-1,-1,-1],"split_conditions":[4.7361984E0,4.356709E0,5.198497E0,3.8501475E0,3E0,4E0,5.4380794E0,3E0,2E0,4.4127984E0,-8.622289E0,5.030438E0,4.912655E0,5E0,5.7430034E0,2E0,3.4011974E0,5E0,-8.622289E0,4.394449E0,2E0,4E0,1E0,5E0,5.1059456E0,5E0,-8.622289E0,1E0,5E0,7E0,9E0,3.713572E0,3.218876E0,3E0,5E0,3E0,4.051785E0,4.1431346E0,4.248495E0,5E0,4.406719E0,4E0,4.6051702E0,4.4886365E0,4.6051702E0,4.470495E0,4.4566703E0,3E0,4.115618E1,5.0689044E0,5E0,1E0,1E0,5.0106354E0,1E0,2E0,6E0,5.267858E0,1E0,1E0,9E0,1.1139601E-1,4.118288E-2,-5.598319E-2,-3.8248442E-2,-1.1855168E-2,-4.1435346E-2,2.8247561E-2,-4.7756843E-3,-7.6092123E-3,1.3015091E-2,-1.1590694E-2,-3.894811E-2,7.873692E-3,-4.245943E-3,-1.5384535E-2,1.0655876E-2,-3.1664018E-2,-2.2284353E-2,-1.727459E-2,-0E0,8.415849E-3,-8.992035E-3,4.9864757E-3,2.5533088E-2,3.3851855E-2,5.4261684E-2,-1.9187855E-3,1.9435575E-2,-2.2923958E-2,-8.481013E-4,-1.759191E-2,-1.0366931E-2,2.2175312E-2,4.834126E-3,1.9761162E-2,6.1963677E-2,4.4680007E-2,-9.513004E-3,6.084529E-2,3.605078E-2,5.1171713E-2,8.5756645E-2,-4.9799858E-3,2.1236181E-2,8.4001785E-3,3.92652E-2,3.2531377E-2,6.699778E-2,1.713587E-2,4.3654718E-2,3.779167E-2,6.5934286E-2,8.2268246E-2,3.3615004E-2,1.0408093E-1,6.462192E-2,4.801184E-2,9.397361E-3,8.1139565E-2,4.072329E-2,-1.0864906E-3,7.52493E-2],"split_indices":[0,0,0,0,1,1,0,1,1,0,8,0,0,6,0,1,0,6,8,0,2,1,12,6,0,6,8,12,1,1,1,0,0,6,6,6,0,0,0,6,0,6,0,0,0,0,0,2,7,0,6,13,13,0,13,2,1,0,3,3,1,0,0,0,0,0,0,0,0,0,0,0,0,0,0,0,0,0,0,0,0,0,0,0,0,0,0,0,0,0,0,0,0,0,0,0,0,0,0,0,0,0,0,0,0,0,0,0,0,0,0,0,0,0,0,0,0,0,0,0,0,0,0],"split_type":[0,0,0,0,0,0,0,0,0,0,0,0,0,0,0,0,0,0,0,0,0,0,0,0,0,0,0,0,0,0,0,0,0,0,0,0,0,0,0,0,0,0,0,0,0,0,0,0,0,0,0,0,0,0,0,0,0,0,0,0,0,0,0,0,0,0,0,0,0,0,0,0,0,0,0,0,0,0,0,0,0,0,0,0,0,0,0,0,0,0,0,0,0,0,0,0,0,0,0,0,0,0,0,0,0,0,0,0,0,0,0,0,0,0,0,0,0,0,0,0,0,0,0],"sum_hessian":[6.005E3,3.865E3,2.14E3,1.739E3,2.126E3,1.709E3,4.31E2,3.97E2,1.342E3,3.97E2,1.729E3,5.54E2,1.155E3,2.46E2,1.85E2,3.5E2,4.7E1,1.81E2,1.161E3,8.6E1,3.11E2,6.9E1,1.66E3,4.52E2,1.02E2,5.72E2,5.83E2,1.86E2,6E1,1.4E2,4.5E1,1.69E2,1.81E2,1E1,3.7E1,1.06E2,7.5E1,4.1E1,1.12E3,5.2E1,3.4E1,2.76E2,3.5E1,5.9E1,1E1,1.587E3,7.3E1,3.02E2,1.5E2,5.2E1,5E1,4.19E2,1.53E2,2.7E1,5.56E2,1.71E2,1.5E1,4.6E1,1.4E1,1.34E2,6E0,4.1E1,4E0,1.24E2,4.5E1,6E0,1.75E2,7E0,3E0,3.2E1,5E0,9.6E1,1E1,4.2E1,3.3E1,2.3E1,1.8E1,7.33E2,3.87E2,3.8E1,1.4E1,2.4E1,1E1,1.33E2,1.43E2,1.6E1,1.9E1,1.6E1,4.3E1,5E0,5E0,4.37E2,1.15E3,1.3E1,6E1,2.74E2,2.8E1,1.47E2,3E0,2.7E1,2.5E1,2.5E1,2.5E1,4.06E2,1.3E1,1.5E2,3E0,1.3E1,1.4E1,5.4E2,1.6E1,1.5E2,2.1E1,1.2E1,3E0,1.6E1,3E1,1.1E1,3E0,1.28E2,6E0,3E0,3E0],"tree_param":{"num_deleted":"0","num_feature":"31","num_nodes":"123","size_leaf_vector":"1"}},{"base_weights":[-5.8620214E-3,-1.852414E-1,3.1774098E-1,-3.2803357E-1,-6.912338E-2,1.7050318E-1,6.3733184E-1,-4.5128754E-1,-2.7524906E-1,-1.09412394E-1,4.034817E-2,1.5692514E-1,7.408122E-1,4.8835632E-1,9.139428E-1,-1.1174551E-1,-4.629939E-1,1.9679774E-2,-2.7766496E-1,-1.2369761E-1,3.6562026E-1,2.0760833E-3,1.0812157E-1,1.09491765E-1,2.7650163E-1,5.6613666E-1,7.3412694E-2,4.251659E-1,6.6722363E-1,7.770805E-1,8.902541E-2,-4.7557256E-3,-1.9756073E-1,-4.7690922E-1,-1.9578974E-1,-3.0127698E-1,-2.1863528E-1,-1.3647336E-1,1.3534057E-1,-1.790795E-2,4.2947093E-1,1.8116048E-2,-8.363363E-3,6.701379E-2,2.8197286E-1,4.67559E-2,2.4748372E-1,1.9148366E-1,4.332031E-1,4.871863E-2,1.740048E-2,3.9787886E-1,8.259494E-1,5.4252774E-1,8.510005E-1,7.0433974E-1,9.93264E-2,3.2875212E-3,-8.7043075E-3,-2.8313033E-2,-5.2566356E-3,-4.5049094E-2,-3.5587206E-2,-3.4878027E-2,7.0972755E-3,-2.4580158E-2,-5.9151086E-3,-3.007448E-2,-1.5901957E-2,-1.5663767E-2,-8.535243E-3,4.0771414E-2,7.8646755E-3,2.4844425E-2,4.1513156E-2,-1.7340733E-3,1.3802409E-2,-2.2481072E-3,8.266521E-3,3.8773585E-2,9.243666E-3,2.747862E-3,2.0246882E-2,1.8414544E-2,3.8512193E-2,1.633078E-2,-3.9583288E-2,2.7910195E-2,4.3389782E-2,2.9628765E-2,5.4684713E-2,7.177075E-2,2.335404E-2,3.3397924E-2,4.971273E-2,9.267597E-2,4.8864968E-2,5.151329E-2,6.649681E-2],"categories":[],"categories_nodes":[],"categories_segments":[],"categories_sizes":[],"default_left":[0,0,0,0,0,0,0,0,0,0,0,0,0,0,0,0,0,0,0,0,0,0,0,0,0,0,0,0,0,0,0,0,0,0,0,0,0,0,0,0,0,0,0,0,0,0,0,0,0,0,0,0,0,0,0,0,0,0,0,0,0,0,0,0,0,0,0,0,0,0,0,0,0,0,0,0,0,0,0,0,0,0,0,0,0,0,0,0,0,0,0,0,0,0,0,0,0,0,0],"id":1,"left_children":[1,3,5,7,9,11,13,15,17,19,21,23,25,27,29,31,33,-1,35,37,39,41,43,45,47,49,-1,51,53,55,-1,57,59,61,63,65,67,69,71,-1,73,-1,75,77,79,81,83,85,87,-1,-1,89,91,93,95,97,-1,-1,-1,-1,-1,-1,-1,-1,-1,-1,-1,-1,-1,-1,-1,-1,-1,-1,-1,-1,-1,-1,-1,-1,-1,-1,-1,-1,-1,-1,-1,-1,-1,-1,-1,-1,-1,-1,-1,-1,-1,-1,-1],"loss_changes":[3.5175662E2,6.458594E1,1.0149826E2,1.1175446E1,9.502716E0,1.1262367E1,2.7476257E1,1.9656372E0,1.6166153E0,1.070211E1,1.4905827E0,8.144058E0,3.8238716E-1,4.63678E0,5.397049E0,1.5327449E-1,1.7133484E0,0E0,1.5853653E0,5.0786667E0,1.8480477E0,8.950553E-1,1.4327061E0,8.953675E0,5.316782E0,8.364391E-2,0E0,3.179802E0,2.011406E0,3.7963867E0,0E0,5.8947966E-2,1.4093775E-1,9.7013855E-1,1.9184266E0,1.1195755E0,9.737072E-1,2.5248966E0,8.8710976E-1,0E0,2.0262384E-1,0E0,8.459571E-1,5.976688E-1,1.1996126E0,1.7955712E0,1.1293354E0,2.3987494E0,1.0380764E0,0E0,0E0,2.1021576E0,3.7948895E-1,3.3706284E-1,2.364687E0,2.9083633E-1,0E0,0E0,0E0,0E0,0E0,0E0,0E0,0E0,0E0,0E0,0E0,0E0,0E0,0E0,0E0,0E0,0E0,0E0,0E0,0E0,0E0,0E0,0E0,0E0,0E0,0E0,0E0,0E0,0E0,0E0,0E0,0E0,0E0,0E0,0E0,0E0,0E0,0E0,0E0,0E0,0E0,0E0,0E0],"parents":[2147483647,0,0,1,1,2,2,3,3,4,4,5,5,6,6,7,7,8,8,9,9,10,10,11,11,12,12,13,13,14,14,15,15,16,16,18,18,19,19,20,20,21,21,22,22,23,23,24,24,25,25,27,27,28,28,29,29,31,31,32,32,33,33,34,34,35,35,36,36,37,37,38,38,40,40,42,42,43,43,44,44,45,45,46,46,47,47,48,48,51,51,52,52,53,53,54,54,55,55],"right_children":[2,4,6,8,10,12,14,16,18,20,22,24,26,28,30,32,34,-1,36,38,40,42,44,46,48,50,-1,52,54,56,-1,58,60,62,64,66,68,70,72,-1,74,-1,76,78,80,82,84,86,88,-1,-1,90,92,94,96,98,-1,-1,-1,-1,-1,-1,-1,-1,-1,-1,-1,-1,-1,-1,-1,-1,-1,-1,-1,-1,-1,-1,-1,-1,-1,-1,-1,-1,-1,-1,-1,-1,-1,-1,-1,-1,-1,-1,-1,-1,-1,-1,-1],"split_conditions":[4.7344427E0,4.356709E0,5.081404E0,3.9318256E0,5E0,3E0,5.3752785E0,3.218876E0,3.8567455E1,2E0,1E0,5E0,4.8598123E0,5E0,5.616771E0,3E0,1E0,1.9679774E-2,5E0,1E0,4.394449E0,3.8567455E1,4.6420803E0,4.94876E0,1E0,4.8520303E0,7.3412694E-2,3E0,5.214936E0,1E0,8.902541E-2,1E0,5E0,3.5695326E0,3.871201E0,1E0,3.9702919E0,4.4886365E0,3.8567455E1,-1.790795E-2,4.60567E0,1.8116048E-2,4.1153538E1,4.449685E0,4.6746964E0,1E0,1E0,5.075174E0,4.882802E0,4.871863E-2,1.740048E-2,1E0,5.3514314E0,5.130786E0,5.267858E0,1E0,9.93264E-2,3.2875212E-3,-8.7043075E-3,-2.8313033E-2,-5.2566356E-3,-4.5049094E-2,-3.5587206E-2,-3.4878027E-2,7.0972755E-3,-2.4580158E-2,-5.9151086E-3,-3.007448E-2,-1.5901957E-2,-1.5663767E-2,-8.535243E-3,4.0771414E-2,7.8646755E-3,2.4844425E-2,4.1513156E-2,-1.7340733E-3,1.3802409E-2,-2.2481072E-3,8.266521E-3,3.8773585E-2,9.243666E-3,2.747862E-3,2.0246882E-2,1.8414544E-2,3.8512193E-2,1.633078E-2,-3.9583288E-2,2.7910195E-2,4.3389782E-2,2.9628765E-2,5.4684713E-2,7.177075E-2,2.335404E-2,3.3397924E-2,4.971273E-2,9.267597E-2,4.8864968E-2,5.151329E-2,6.649681E-2],"split_indices":[0,0,0,0,6,2,0,0,7,2,11,6,0,6,0,6,12,0,6,12,0,7,0,0,11,0,0,2,0,12,0,11,6,0,0,12,0,0,7,0,0,0,7,0,0,12,12,0,0,0,0,12,0,0,0,11,0,0,0,0,0,0,0,0,0,0,0,0,0,0,0,0,0,0,0,0,0,0,0,0,0,0,0,0,0,0,0,0,0,0,0,0,0,0,0,0,0,0,0],"split_type":[0,0,0,0,0,0,0,0,0,0,0,0,0,0,0,0,0,0,0,0,0,0,0,0,0,0,0,0,0,0,0,0,0,0,0,0,0,0,0,0,0,0,0,0,0,0,0,0,0,0,0,0,0,0,0,0,0,0,0,0,0,0,0,0,0,0,0,0,0,0,0,0,0,0,0,0,0,0,0,0,0,0,0,0,0,0,0,0,0,0,0,0,0,0,0,0,0,0,0],"sum_hessian":[6.058E3,3.898E3,2.16E3,1.747E3,2.151E3,1.48E3,6.8E2,5.21E2,1.226E3,1.573E3,5.78E2,1.447E3,3.3E1,4.44E2,2.36E2,1.8E1,5.03E2,5E0,1.221E3,1.528E3,4.5E1,3.71E2,2.07E2,1.038E3,4.09E2,1.9E1,1.4E1,3.31E2,1.13E2,1.43E2,9.3E1,9E0,9E0,4.77E2,2.6E1,8.68E2,3.53E2,1.457E3,7.1E1,4E0,4.1E1,1.6E1,3.55E2,1.69E2,3.8E1,7.15E2,3.23E2,2.67E2,1.42E2,1.6E1,3E0,3.12E2,1.9E1,7E1,4.3E1,1.26E2,1.7E1,6E0,3E0,3E0,6E0,1.24E2,3.53E2,1.4E1,1.2E1,8.45E2,2.3E1,3.7E1,3.16E2,4.84E2,9.73E2,5E0,6.6E1,2E1,2.1E1,3.32E2,2.3E1,4.6E1,1.23E2,1.6E1,2.2E1,6.76E2,3.9E1,3.03E2,2E1,2.63E2,4E0,8.3E1,5.9E1,2.87E2,2.5E1,1.6E1,3E0,3E1,4E1,1.7E1,2.6E1,9E1,3.6E1],"tree_param":{"num_deleted":"0","num_feature":"31","num_nodes":"99","size_leaf_vector":"1"}},{"base_weights":[-7.4916746E-4,-1.7006692E-1,2.9968798E-1,-3.0019736E-1,-6.219424E-2,1.9477814E-1,7.184106E-1,-4.1270307E-1,-2.5345835E-1,1.690358E-1,-1.1443369E-1,3.9758396E-1,9.4856665E-2,6.227575E-1,8.794339E-2,-4.5487046E-1,-5.224192E-2,-4.733613E-2,-2.8252506E-1,1.0173121E-1,3.7025762E-1,-2.0922476E-1,-9.855445E-2,3.418751E-1,6.399007E-1,-1.5992261E-2,2.0743155E-1,6.601768E-1,3.5141352E-1,-4.5944118E-1,1.2301375E-2,1.7979422E-1,-1.5461046E-1,2.9313128E-2,-9.078635E-2,-3.1935382E-1,-2.2044863E-1,-9.458689E-2,1.4772318E-1,4.035083E-1,-3.007578E-3,-2.1653976E-1,2.296381E-2,-1.06593594E-1,7.6800354E-2,-4.006737E-2,3.522287E-1,5.850695E-1,8.0985814E-2,-2.7397037E-2,3.1089308E-2,1.5469094E-1,2.573518E-1,6.2318856E-1,7.820764E-2,9.635847E-2,5.141777E-1,-4.184136E-2,-3.2112952E-2,1.880606E-2,-2.6911811E-3,-4.425739E-2,-7.231361E-3,3.3714686E-4,1.0747692E-2,-1.6381552E-2,-4.5303376E-3,-2.5973959E-2,-8.974322E-3,1.9962609E-2,-1.8170433E-2,-6.4584888E-3,-1.8362338E-2,1.2841897E-2,-6.357172E-3,3.0925447E-2,5.1686447E-2,-1.1662896E-2,-1.8295458E-2,-0E0,4.020041E-3,-9.110263E-3,5.1567466E-3,1.1336406E-2,-6.602592E-3,2.6227014E-2,5.4392166E-2,3.8898464E-2,5.902062E-2,-2.7111187E-3,3.3956476E-2,1.315943E-2,-2.507851E-2,1.9764762E-2,4.6759207E-2,4.3661274E-2,5.927078E-2,1.3567058E-2,-1.5652014E-2,2.8541362E-2,4.8772406E-2],"categories":[],"categories_nodes":[],"categories_segments":[],"categories_sizes":[],"default_left":[0,0,0,0,0,0,0,0,0,0,0,0,0,0,0,0,0,0,0,0,0,0,0,0,0,0,0,0,0,0,0,0,0,0,0,0,0,0,0,0,0,0,0,0,0,0,0,0,0,0,0,0,0,0,0,0,0,0,0,0,0,0,0,0,0,0,0,0,0,0,0,0,0,0,0,0,0,0,0,0,0,0,0,0,0,0,0,0,0,0,0,0,0,0,0,0,0,0,0,0,0],"id":2,"left_children":[1,3,5,7,9,11,13,15,17,19,21,23,25,27,-1,29,31,33,35,37,39,41,43,45,47,49,51,53,55,57,-1,59,61,63,65,67,69,71,73,75,-1,77,79,81,83,-1,85,87,-1,89,-1,91,93,95,-1,97,99,-1,-1,-1,-1,-1,-1,-1,-1,-1,-1,-1,-1,-1,-1,-1,-1,-1,-1,-1,-1,-1,-1,-1,-1,-1,-1,-1,-1,-1,-1,-1,-1,-1,-1,-1,-1,-1,-1,-1,-1,-1,-1,-1,-1],"loss_changes":[3.0754318E2,5.4228195E1,9.548813E1,9.041504E0,2.5573744E1,3.5254593E1,1.5027786E1,7.7077713E0,7.388832E0,5.1969643E0,2.5481014E0,7.4450912E0,1.4622664E1,3.2307281E0,0E0,1.3753281E0,1.3317056E0,5.2502483E-1,2.3607178E0,2.6738293E0,1.3672132E0,4.4215107E-1,2.1003456E0,4.2623787E0,1.4125404E0,2.6970625E0,1.4486561E0,2.8351135E0,1.7575231E0,1.3762283E0,0E0,2.2863388E-1,8.839513E-1,1.3320507E-1,3.5159767E-1,6.6835785E-1,1.3388233E0,5.514878E-2,7.1590376E-1,1.681137E-2,0E0,1.3472843E-1,8.4068775E-3,1.7792072E0,6.898066E-1,0E0,3.392746E0,9.5257187E-1,0E0,1.6620362E0,0E0,1.3491192E0,7.690716E-1,2.0002213E0,0E0,4.3686455E-1,9.1639996E-2,0E0,0E0,0E0,0E0,0E0,0E0,0E0,0E0,0E0,0E0,0E0,0E0,0E0,0E0,0E0,0E0,0E0,0E0,0E0,0E0,0E0,0E0,0E0,0E0,0E0,0E0,0E0,0E0,0E0,0E0,0E0,0E0,0E0,0E0,0E0,0E0,0E0,0E0,0E0,0E0,0E0,0E0,0E0,0E0],"parents":[2147483647,0,0,1,1,2,2,3,3,4,4,5,5,6,6,7,7,8,8,9,9,10,10,11,11,12,12,13,13,15,15,16,16,17,17,18,18,19,19,20,20,21,21,22,22,23,23,24,24,25,25,26,26,27,27,28,28,29,29,31,31,32,32,33,33,34,34,35,35,36,36,37,37,38,38,39,39,41,41,42,42,43,43,44,44,46,46,47,47,49,49,51,51,52,52,53,53,55,55,56,56],"right_children":[2,4,6,8,10,12,14,16,18,20,22,24,26,28,-1,30,32,34,36,38,40,42,44,46,48,50,52,54,56,58,-1,60,62,64,66,68,70,72,74,76,-1,78,80,82,84,-1,86,88,-1,90,-1,92,94,96,-1,98,100,-1,-1,-1,-1,-1,-1,-1,-1,-1,-1,-1,-1,-1,-1,-1,-1,-1,-1,-1,-1,-1,-1,-1,-1,-1,-1,-1,-1,-1,-1,-1,-1,-1,-1,-1,-1,-1,-1,-1,-1,-1,-1,-1,-1],"split_conditions":[4.727388E0,4.356709E0,5.198497E0,3.9318256E0,3E0,4E0,5.616771E0,3E0,2E0,4.6151204E0,4.4127984E0,5.030438E0,4.912655E0,6E0,8.794339E-2,5E0,3.465736E0,4.051785E0,4.248495E0,4.394449E0,4.7132173E0,1E0,1E0,2E0,2E0,1E0,5.0238805E0,1E0,5.3514314E0,3.713572E0,1.2301375E-2,5E0,3.5695326E0,4.0253515E0,4.1108737E0,1E0,3.8567455E1,4.1150734E1,4.6051702E0,1E0,-3.007578E-3,4.3694477E0,4.3694477E0,1E0,4.644391E0,-4.006737E-2,3E0,5.123964E0,8.0985814E-2,4E0,3.1089308E-2,7E0,4.1178543E1,5.3752785E0,7.820764E-2,1E0,5.463832E0,-4.184136E-2,-3.2112952E-2,1.880606E-2,-2.6911811E-3,-4.425739E-2,-7.231361E-3,3.3714686E-4,1.0747692E-2,-1.6381552E-2,-4.5303376E-3,-2.5973959E-2,-8.974322E-3,1.9962609E-2,-1.8170433E-2,-6.4584888E-3,-1.8362338E-2,1.2841897E-2,-6.357172E-3,3.0925447E-2,5.1686447E-2,-1.1662896E-2,-1.8295458E-2,-0E0,4.020041E-3,-9.110263E-3,5.1567466E-3,1.1336406E-2,-6.602592E-3,2.6227014E-2,5.4392166E-2,3.8898464E-2,5.902062E-2,-2.7111187E-3,3.3956476E-2,1.315943E-2,-2.507851E-2,1.9764762E-2,4.6759207E-2,4.3661274E-2,5.927078E-2,1.3567058E-2,-1.5652014E-2,2.8541362E-2,4.8772406E-2],"split_indices":[0,0,0,0,1,1,0,1,1,0,0,0,0,1,0,3,0,0,0,0,0,12,13,1,2,29,0,12,0,0,0,1,0,0,0,12,7,7,0,13,0,0,0,12,0,0,2,0,0,3,0,1,7,0,0,3,0,0,0,0,0,0,0,0,0,0,0,0,0,0,0,0,0,0,0,0,0,0,0,0,0,0,0,0,0,0,0,0,0,0,0,0,0,0,0,0,0,0,0,0,0],"split_type":[0,0,0,0,0,0,0,0,0,0,0,0,0,0,0,0,0,0,0,0,0,0,0,0,0,0,0,0,0,0,0,0,0,0,0,0,0,0,0,0,0,0,0,0,0,0,0,0,0,0,0,0,0,0,0,0,0,0,0,0,0,0,0,0,0,0,0,0,0,0,0,0,0,0,0,0,0,0,0,0,0,0,0,0,0,0,0,0,0,0,0,0,0,0,0,0,0,0,0,0,0],"sum_hessian":[6.044E3,3.866E3,2.178E3,1.751E3,2.115E3,1.743E3,4.35E2,5.11E2,1.24E3,3.89E2,1.726E3,5.74E2,1.169E3,3.5E2,8.5E1,4.57E2,5.4E1,1.54E2,1.086E3,2.93E2,9.6E1,2.45E2,1.481E3,4.69E2,1.05E2,5.89E2,5.8E2,3.06E2,4.4E1,4.54E2,3E0,1.6E1,3.8E1,5.5E1,9.9E1,6.78E2,4.08E2,5.5E1,2.38E2,8.9E1,7E0,2.38E2,7E0,1.417E3,6.4E1,5E0,4.64E2,9.4E1,1.1E1,5.74E2,1.5E1,2.85E2,2.95E2,2.77E2,2.9E1,1.8E1,2.6E1,2.12E2,2.42E2,1.3E1,3E0,4E0,3.4E1,4.6E1,9E0,2.1E1,7.8E1,6.6E2,1.8E1,5E0,4.03E2,5.2E1,3E0,2.26E2,1.2E1,8.6E1,3E0,3.8E1,2E2,3E0,4E0,1.36E3,5.7E1,4.6E1,1.8E1,4.34E2,3E1,6E1,3.4E1,5.67E2,7E0,2.8E2,5E0,2.88E2,7E0,1.71E2,1.06E2,1.5E1,3E0,1.2E1,1.4E1],"tree_param":{"num_deleted":"0","num_feature":"31","num_nodes":"101","size_leaf_vector":"1"}},{"base_weights":[-1.2701476E-4,-1.5317728E-1,2.8425857E-1,-2.6651284E-1,-5.2470244E-2,1.8637078E-1,6.687369E-1,-3.5885596E-1,-2.2887553E-1,1.7346267E-1,-1.0313375E-1,3.7622172E-1,9.860034E-2,4.6660835E-1,8.2620835E-1,-4.0213177E-1,-2.8721346E-2,-5.047349E-2,-2.5523174E-1,1.11889966E-1,3.2915455E-1,-1.7798325E-1,-7.958655E-2,2.8931543E-1,5.426018E-1,-4.5755105E-3,1.9305219E-1,3.4925148E-1,7.538544E-1,7.1803564E-1,9.872318E-1,-4.5208374E-1,-3.2148856E-1,1.4907998E-1,-1.6899124E-1,-1.5176974E-1,7.682801E-2,-3.1433913E-1,-2.1650538E-1,1.3332172E-2,2.117885E-1,2.800796E-1,4.5328435E-2,-1.8531202E-1,1.20034255E-1,1.3998416E-1,-8.9141846E-2,2.3652293E-1,6.926839E-1,4.9497914E-1,6.63474E-2,-1.4895162E-2,2.8735546E-2,5.353711E-1,1.7652592E-1,3.104391E-1,5.990777E-1,5.187061E-1,8.542122E-2,6.6240484E-1,8.59494E-2,8.175866E-2,-1.3186912E-3,-8.938199E-3,-3.7500985E-2,-2.7752893E-2,-4.2133278E-4,1.4082319E-2,-2.5297052E-3,-1.6032688E-2,8.595989E-3,-1.5528015E-2,-2.1193295E-3,1.0433968E-2,2.6089395E-3,-2.8733097E-2,-1.7027998E-2,1.5605405E-2,-1.7981691E-2,-2.123861E-3,2.191744E-2,-1.1517011E-2,1.8406754E-2,1.534707E-2,3.1637833E-2,5.602639E-3,-1.517411E-2,2.2874454E-2,-6.6438657E-3,1.5020822E-2,-4.3804194E-3,-8.692748E-3,-1.7757381E-3,1.619991E-2,5.5617183E-2,3.745556E-2,7.483947E-2,3.2081757E-2,4.6425965E-2,-3.5006925E-3,5.09504E-3,2.7323615E-2,6.217274E-2,1.1136259E-2,2.0654015E-2,2.0235887E-2,3.3442695E-2,2.345999E-2,5.841143E-2,5.6332476E-2,3.2248996E-2,4.7920287E-2,6.4682856E-2],"categories":[],"categories_nodes":[],"categories_segments":[],"categories_sizes":[],"default_left":[0,0,0,0,0,0,0,0,0,0,0,0,0,0,0,0,0,0,0,0,0,0,0,0,0,0,0,0,0,0,0,0,0,0,0,0,0,0,0,0,0,0,0,0,0,0,0,0,0,0,0,0,0,0,0,0,0,0,0,0,0,0,0,0,0,0,0,0,0,0,0,0,0,0,0,0,0,0,0,0,0,0,0,0,0,0,0,0,0,0,0,0,0,0,0,0,0,0,0,0,0,0,0,0,0,0,0,0,0,0,0,0,0],"id":3,"left_children":[1,3,5,7,9,11,13,15,17,19,21,23,25,27,29,31,33,35,37,39,41,43,45,47,49,51,53,55,57,59,61,63,65,67,69,71,73,75,77,79,81,83,-1,85,87,89,91,93,95,97,-1,99,-1,101,103,105,107,109,-1,111,-1,-1,-1,-1,-1,-1,-1,-1,-1,-1,-1,-1,-1,-1,-1,-1,-1,-1,-1,-1,-1,-1,-1,-1,-1,-1,-1,-1,-1,-1,-1,-1,-1,-1,-1,-1,-1,-1,-1,-1,-1,-1,-1,-1,-1,-1,-1,-1,-1,-1,-1,-1,-1],"loss_changes":[2.6274908E2,4.4752846E1,7.927655E1,6.274948E0,2.3819689E1,2.7993088E1,1.31082E1,7.5459747E0,6.139679E0,3.5714731E0,2.9563236E0,7.452263E0,1.1265635E1,6.0313606E0,3.2835999E0,1.6705933E0,1.5984153E0,2.2242272E0,2.4997787E0,2.6822538E0,1.0034962E0,9.13332E-1,2.7264843E0,7.239025E0,1.9286766E0,2.043116E0,3.2456303E0,1.0514717E0,3.2735424E0,2.0286407E0,3.3612823E0,1.5187759E0,1.4421654E0,1.5635926E-1,3.4349167E-1,4.818945E-1,1.5955088E-1,1.9134979E0,2.414585E0,1.4872133E0,9.2693233E-1,7.9200506E-1,0E0,4.6655846E-1,3.8094112E-1,5.259917E-1,1.6086082E0,4.6543045E0,1.601963E0,9.361191E-1,0E0,1.2210774E0,0E0,8.8804483E-1,1.6826553E0,5.756273E-1,3.6496353E-1,3.128338E-1,0E0,5.7936096E-1,0E0,0E0,0E0,0E0,0E0,0E0,0E0,0E0,0E0,0E0,0E0,0E0,0E0,0E0,0E0,0E0,0E0,0E0,0E0,0E0,0E0,0E0,0E0,0E0,0E0,0E0,0E0,0E0,0E0,0E0,0E0,0E0,0E0,0E0,0E0,0E0,0E0,0E0,0E0,0E0,0E0,0E0,0E0,0E0,0E0,0E0,0E0,0E0,0E0,0E0,0E0,0E0,0E0],"parents":[2147483647,0,0,1,1,2,2,3,3,4,4,5,5,6,6,7,7,8,8,9,9,10,10,11,11,12,12,13,13,14,14,15,15,16,16,17,17,18,18,19,19,20,20,21,21,22,22,23,23,24,24,25,25,26,26,27,27,28,28,29,29,30,30,31,31,32,32,33,33,34,34,35,35,36,36,37,37,38,38,39,39,40,40,41,41,43,43,44,44,45,45,46,46,47,47,48,48,49,49,51,51,53,53,54,54,55,55,56,56,57,57,59,59],"right_children":[2,4,6,8,10,12,14,16,18,20,22,24,26,28,30,32,34,36,38,40,42,44,46,48,50,52,54,56,58,60,62,64,66,68,70,72,74,76,78,80,82,84,-1,86,88,90,92,94,96,98,-1,100,-1,102,104,106,108,110,-1,112,-1,-1,-1,-1,-1,-1,-1,-1,-1,-1,-1,-1,-1,-1,-1,-1,-1,-1,-1,-1,-1,-1,-1,-1,-1,-1,-1,-1,-1,-1,-1,-1,-1,-1,-1,-1,-1,-1,-1,-1,-1,-1,-1,-1,-1,-1,-1,-1,-1,-1,-1,-1,-1],"split_conditions":[4.744932E0,4.375002E0,5.214936E0,3.9512436E0,3E0,4E0,5.3752785E0,3E0,2E0,4.6151204E0,4.470495E0,5E0,4.912655E0,3E0,5.616771E0,3.8066626E0,3.6888795E0,5E0,4.158883E0,4E0,2E0,1E0,-8.622289E0,2E0,5.1059456E0,1E0,-8.622289E0,2E0,1E0,1E0,1E1,3.218876E0,1E0,5E0,4E0,1E0,4.0430512E0,1E0,-8.646863E0,2E0,-8.618639E0,1E0,4.5328435E-2,-8.63881E0,1E0,4E0,5E0,1E0,4.905275E0,1E0,6.63474E-2,5E0,2.8735546E-2,5.062595E0,5.081404E0,1E0,5.267858E0,4E0,8.542122E-2,1E0,8.59494E-2,8.175866E-2,-1.3186912E-3,-8.938199E-3,-3.7500985E-2,-2.7752893E-2,-4.2133278E-4,1.4082319E-2,-2.5297052E-3,-1.6032688E-2,8.595989E-3,-1.5528015E-2,-2.1193295E-3,1.0433968E-2,2.6089395E-3,-2.8733097E-2,-1.7027998E-2,1.5605405E-2,-1.7981691E-2,-2.123861E-3,2.191744E-2,-1.1517011E-2,1.8406754E-2,1.534707E-2,3.1637833E-2,5.602639E-3,-1.517411E-2,2.2874454E-2,-6.6438657E-3,1.5020822E-2,-4.3804194E-3,-8.692748E-3,-1.7757381E-3,1.619991E-2,5.5617183E-2,3.745556E-2,7.483947E-2,3.2081757E-2,4.6425965E-2,-3.5006925E-3,5.09504E-3,2.7323615E-2,6.217274E-2,1.1136259E-2,2.0654015E-2,2.0235887E-2,3.3442695E-2,2.345999E-2,5.841143E-2,5.6332476E-2,3.2248996E-2,4.7920287E-2,6.4682856E-2],"split_indices":[0,0,0,0,1,1,0,1,1,0,0,6,0,6,0,0,0,6,0,6,2,12,8,2,0,29,8,2,11,12,1,0,12,1,1,21,0,11,8,2,8,11,0,8,11,1,6,12,0,11,0,6,0,0,0,11,0,1,0,11,0,0,0,0,0,0,0,0,0,0,0,0,0,0,0,0,0,0,0,0,0,0,0,0,0,0,0,0,0,0,0,0,0,0,0,0,0,0,0,0,0,0,0,0,0,0,0,0,0,0,0,0,0],"split_type":[0,0,0,0,0,0,0,0,0,0,0,0,0,0,0,0,0,0,0,0,0,0,0,0,0,0,0,0,0,0,0,0,0,0,0,0,0,0,0,0,0,0,0,0,0,0,0,0,0,0,0,0,0,0,0,0,0,0,0,0,0,0,0,0,0,0,0,0,0,0,0,0,0,0,0,0,0,0,0,0,0,0,0,0,0,0,0,0,0,0,0,0,0,0,0,0,0,0,0,0,0,0,0,0,0,0,0,0,0,0,0,0,0],"sum_hessian":[6.035E3,3.924E3,2.111E3,1.845E3,2.079E3,1.684E3,4.27E2,5.31E2,1.314E3,3.8E2,1.699E3,5.31E2,1.153E3,1.89E2,2.38E2,4.69E2,6.2E1,1.7E2,1.144E3,2.74E2,1.06E2,4.04E2,1.295E3,3.51E2,1.8E2,5.51E2,6.02E2,1.36E2,5.3E1,1.46E2,9.2E1,2.86E2,1.83E2,2.7E1,3.5E1,9.5E1,7.5E1,4.49E2,6.95E2,1.39E2,1.35E2,9E1,1.6E1,3.95E2,9E0,5.3E1,1.242E3,3.12E2,3.9E1,1.57E2,2.3E1,5.37E2,1.4E1,2.6E1,5.76E2,1.2E2,1.6E1,3.2E1,2.1E1,1.29E2,1.7E1,8.9E1,3E0,1.4E1,2.72E2,1.69E2,1.4E1,2.4E1,3E0,3.2E1,3E0,7E1,2.5E1,3.2E1,4.3E1,3.09E2,1.4E2,1.3E1,6.82E2,1.21E2,1.8E1,6E0,1.29E2,5.3E1,3.7E1,6E0,3.89E2,5E0,4E0,4.3E1,1E1,9.6E2,2.82E2,2.92E2,2E1,2.2E1,1.7E1,7.8E1,7.9E1,3.94E2,1.43E2,1.6E1,1E1,3.98E2,1.78E2,8.1E1,3.9E1,6E0,1E1,1E1,2.2E1,9.4E1,3.5E1],"tree_param":{"num_deleted":"0","num_feature":"31","num_nodes":"113","size_leaf_vector":"1"}},{"base_weights":[4.657537E-4,-1.4556833E-1,2.6395664E-1,-2.5172105E-1,-4.894515E-2,1.7284359E-1,5.9685564E-1,-3.6678037E-1,-2.2036548E-1,1.4538364E-1,-9.284904E-2,3.455439E-1,9.2163414E-2,4.4762903E-1,7.764514E-1,-4.0943643E-1,-3.3003278E-2,-5.5251244E-2,-2.4590644E-1,9.030867E-2,2.9911283E-1,-1.16353616E-1,-2.419996E-2,2.6326886E-1,4.9311545E-1,-2.1915324E-3,1.808322E-1,3.681766E-1,6.219226E-1,7.1739894E-1,1.0872543E0,-4.979257E-1,-3.3396384E-1,-1.14564545E-1,2.6207376E-1,-1.2907895E-1,6.522955E-2,9.864709E-3,-2.55244E-1,-4.26918E-3,2.1388711E-1,3.3475643E-1,8.92671E-2,-1.2493551E-1,7.1956255E-2,1.7511314E-1,-3.999417E-2,2.3296636E-1,6.97162E-1,4.4991452E-1,6.1664708E-2,-1.6694874E-2,3.1824538E-1,4.7610587E-1,1.636117E-1,3.256996E-1,7.2210026E-1,4.3221703E-1,9.4167477E-1,6.280624E-1,8.0870336E-1,5.7157755E-1,9.4732285E-2,-4.0703107E-2,1.800106E-3,-7.6860044E-4,-2.9026238E-2,9.318403E-3,-1.4055275E-2,5.978001E-3,2.5392426E-2,-8.020943E-3,-3.2342754E-2,1.040413E-2,-1.1057694E-3,-6.635485E-3,1.38789425E-2,-2.3092186E-2,-1.6193595E-2,2.4077058E-2,-1.6859528E-3,-7.042438E-3,1.9186176E-2,2.1652626E-2,3.815104E-2,-0E0,1.6837163E-2,-1.4765077E-2,-8.153694E-3,1.0343745E-2,-3.5481998E-3,2.015649E-2,7.2901887E-3,-6.051309E-3,1.3654967E-3,-3.8476195E-2,1.96685E-2,4.0712886E-2,7.603897E-2,2.7810385E-2,4.337894E-2,-5.24376E-3,5.288557E-3,2.9532732E-2,-2.890663E-4,2.0367928E-2,5.4036014E-2,1.2215025E-2,3.589225E-2,2.7717505E-2,1.5159883E-4,6.2516786E-2,2.351813E-2,5.0340742E-2,2.8783914E-2,3.2221623E-2,8.084346E-2,5.844395E-2,4.153705E-2,6.6949934E-2,2.2906983E-2,5.858727E-2,1.9433582E-2],"categories":[],"categories_nodes":[],"categories_segments":[],"categories_sizes":[],"default_left":[0,0,0,0,0,0,0,0,0,0,0,0,0,0,0,0,0,0,0,0,0,0,0,0,0,0,0,0,0,0,0,0,0,0,0,0,0,0,0,0,0,0,0,0,0,0,0,0,0,0,0,0,0,0,0,0,0,0,0,0,0,0,0,0,0,0,0,0,0,0,0,0,0,0,0,0,0,0,0,0,0,0,0,0,0,0,0,0,0,0,0,0,0,0,0,0,0,0,0,0,0,0,0,0,0,0,0,0,0,0,0,0,0,0,0,0,0,0,0,0,0,0,0],"id":4,"left_children":[1,3,5,7,9,11,13,15,17,19,21,23,25,27,29,31,33,35,37,39,41,43,45,47,49,51,53,55,57,59,61,63,65,67,69,71,73,75,77,79,81,83,85,87,89,91,93,95,97,99,-1,101,103,105,107,109,111,113,115,117,119,121,-1,-1,-1,-1,-1,-1,-1,-1,-1,-1,-1,-1,-1,-1,-1,-1,-1,-1,-1,-1,-1,-1,-1,-1,-1,-1,-1,-1,-1,-1,-1,-1,-1,-1,-1,-1,-1,-1,-1,-1,-1,-1,-1,-1,-1,-1,-1,-1,-1,-1,-1,-1,-1,-1,-1,-1,-1,-1,-1,-1,-1],"loss_changes":[2.3230737E2,3.9795074E1,6.512346E1,6.5347977E0,1.7370438E1,2.3499844E1,1.191185E1,5.551861E0,6.1007233E0,3.1090312E0,2.6632643E0,6.3266373E0,9.681383E0,3.2032623E0,2.857109E0,2.0813217E0,1.1223488E0,1.7670845E0,3.0386734E0,3.2710788E0,6.607218E-1,2.0117302E0,1.3345364E0,4.3200912E0,1.8224831E0,2.5777054E0,2.888651E0,2.3360176E0,4.186987E0,8.0031586E-1,6.9662476E-1,9.5332336E-1,1.7568264E0,5.489338E-1,4.0731907E-2,8.8447976E-1,3.9774254E-1,7.067907E-1,2.0401764E0,7.888149E-1,9.8393536E-1,5.523386E-1,1.825694E-1,1.5759697E0,3.7436646E-1,1.4279681E-1,8.1266445E-1,3.103901E0,4.1949844E-1,1.3089676E0,0E0,2.176467E0,4.3117762E-1,1.1480222E0,1.6306353E0,1.0472603E0,1.2016392E-1,4.0242863E-1,4.9083138E-1,5.5550003E-1,8.841553E-1,9.442687E-2,0E0,0E0,0E0,0E0,0E0,0E0,0E0,0E0,0E0,0E0,0E0,0E0,0E0,0E0,0E0,0E0,0E0,0E0,0E0,0E0,0E0,0E0,0E0,0E0,0E0,0E0,0E0,0E0,0E0,0E0,0E0,0E0,0E0,0E0,0E0,0E0,0E0,0E0,0E0,0E0,0E0,0E0,0E0,0E0,0E0,0E0,0E0,0E0,0E0,0E0,0E0,0E0,0E0,0E0,0E0,0E0,0E0,0E0,0E0,0E0,0E0],"parents":[2147483647,0,0,1,1,2,2,3,3,4,4,5,5,6,6,7,7,8,8,9,9,10,10,11,11,12,12,13,13,14,14,15,15,16,16,17,17,18,18,19,19,20,20,21,21,22,22,23,23,24,24,25,25,26,26,27,27,28,28,29,29,30,30,31,31,32,32,33,33,34,34,35,35,36,36,37,37,38,38,39,39,40,40,41,41,42,42,43,43,44,44,45,45,46,46,47,47,48,48,49,49,51,51,52,52,53,53,54,54,55,55,56,56,57,57,58,58,59,59,60,60,61,61],"right_children":[2,4,6,8,10,12,14,16,18,20,22,24,26,28,30,32,34,36,38,40,42,44,46,48,50,52,54,56,58,60,62,64,66,68,70,72,74,76,78,80,82,84,86,88,90,92,94,96,98,100,-1,102,104,106,108,110,112,114,116,118,120,122,-1,-1,-1,-1,-1,-1,-1,-1,-1,-1,-1,-1,-1,-1,-1,-1,-1,-1,-1,-1,-1,-1,-1,-1,-1,-1,-1,-1,-1,-1,-1,-1,-1,-1,-1,-1,-1,-1,-1,-1,-1,-1,-1,-1,-1,-1,-1,-1,-1,-1,-1,-1,-1,-1,-1,-1,-1,-1,-1,-1,-1],"split_conditions":[4.7344427E0,4.375002E0,5.198497E0,3.8501475E0,3E0,4E0,5.4380794E0,3E0,2E0,4.6151204E0,5E0,5E0,4.912655E0,3E0,1E0,2E0,1E0,5E0,-8.622289E0,5E0,4.7132173E0,1E0,-8.622289E0,1E0,5.1059456E0,1E0,-8.618639E0,1E0,1E0,5.616771E0,5.521461E0,4E0,3.3672957E0,3.4011974E0,3E0,3E0,4.051785E0,4.2341065E0,4.248495E0,-8.673401E0,-8.618639E0,1E0,4.727388E0,4.4886365E0,4.658711E0,-8.660143E0,1E0,2E0,4.94876E0,1E0,6.1664708E-2,4E0,1E0,5.030438E0,1E0,1E0,6E0,4E0,5.214936E0,5.521461E0,1E1,4E0,9.4732285E-2,-4.0703107E-2,1.800106E-3,-7.6860044E-4,-2.9026238E-2,9.318403E-3,-1.4055275E-2,5.978001E-3,2.5392426E-2,-8.020943E-3,-3.2342754E-2,1.040413E-2,-1.1057694E-3,-6.635485E-3,1.38789425E-2,-2.3092186E-2,-1.6193595E-2,2.4077058E-2,-1.6859528E-3,-7.042438E-3,1.9186176E-2,2.1652626E-2,3.815104E-2,-0E0,1.6837163E-2,-1.4765077E-2,-8.153694E-3,1.0343745E-2,-3.5481998E-3,2.015649E-2,7.2901887E-3,-6.051309E-3,1.3654967E-3,-3.8476195E-2,1.96685E-2,4.0712886E-2,7.603897E-2,2.7810385E-2,4.337894E-2,-5.24376E-3,5.288557E-3,2.9532732E-2,-2.890663E-4,2.0367928E-2,5.4036014E-2,1.2215025E-2,3.589225E-2,2.7717505E-2,1.5159883E-4,6.2516786E-2,2.351813E-2,5.0340742E-2,2.8783914E-2,3.2221623E-2,8.084346E-2,5.844395E-2,4.153705E-2,6.6949934E-2,2.2906983E-2,5.858727E-2,1.9433582E-2],"split_indices":[0,0,0,0,1,1,0,1,1,0,6,6,0,6,12,1,11,6,8,6,0,12,8,12,0,13,8,12,11,0,0,3,0,0,6,6,0,0,0,8,8,11,0,0,0,8,11,1,0,11,0,6,11,0,13,3,1,1,0,0,1,1,0,0,0,0,0,0,0,0,0,0,0,0,0,0,0,0,0,0,0,0,0,0,0,0,0,0,0,0,0,0,0,0,0,0,0,0,0,0,0,0,0,0,0,0,0,0,0,0,0,0,0,0,0,0,0,0,0,0,0,0,0],"split_type":[0,0,0,0,0,0,0,0,0,0,0,0,0,0,0,0,0,0,0,0,0,0,0,0,0,0,0,0,0,0,0,0,0,0,0,0,0,0,0,0,0,0,0,0,0,0,0,0,0,0,0,0,0,0,0,0,0,0,0,0,0,0,0,0,0,0,0,0,0,0,0,0,0,0,0,0,0,0,0,0,0,0,0,0,0,0,0,0,0,0,0,0,0,0,0,0,0,0,0,0,0,0,0,0,0,0,0,0,0,0,0,0,0,0,0,0,0,0,0,0,0,0,0],"sum_hessian":[6.035E3,3.883E3,2.152E3,1.849E3,2.034E3,1.691E3,4.61E2,3.93E2,1.456E3,3.74E2,1.66E3,5.37E2,1.154E3,2.54E2,2.07E2,3.48E2,4.5E1,1.96E2,1.26E3,2.77E2,9.7E1,1.235E3,4.25E2,3.47E2,1.9E2,5.59E2,5.95E2,1.77E2,7.7E1,1.77E2,3E1,1.57E2,1.91E2,3.6E1,9E0,1.22E2,7.4E1,4.4E1,1.216E3,1.57E2,1.2E2,8.2E1,1.5E1,1.182E3,5.3E1,3E1,3.95E2,3.26E2,2.1E1,1.67E2,2.3E1,5.36E2,2.3E1,3.1E1,5.64E2,1.6E2,1.7E1,5E1,2.7E1,9.4E1,8.3E1,6E0,2.4E1,1.54E2,3E0,1.6E1,1.75E2,7E0,2.9E1,3E0,6E0,1.12E2,1E1,4.1E1,3.3E1,2.8E1,1.6E1,7.41E2,4.75E2,7E0,1.5E2,9E0,1.11E2,5.9E1,2.3E1,9E0,6E0,3.26E2,8.56E2,3.6E1,1.7E1,1.4E1,1.6E1,2.44E2,1.51E2,5E0,3.21E2,1.4E1,7E0,8.2E1,8.5E1,3.38E2,1.98E2,2E1,3E0,1.6E1,1.5E1,5.45E2,1.9E1,1.5E2,1E1,1.4E1,3E0,1.1E1,3.9E1,4E0,2.3E1,4.5E1,4.9E1,7.8E1,5E0,3E0,3E0],"tree_param":{"num_deleted":"0","num_feature":"31","num_nodes":"123","size_leaf_vector":"1"}},{"base_weights":[3.689618E-3,-1.3233173E-1,2.4936686E-1,-2.3735958E-1,-4.824097E-2,1.6245456E-1,5.7590777E-1,-2.9543754E-1,-1.9989689E-1,1.3728741E-1,-9.27422E-2,3.2633382E-1,8.071596E-2,4.9380928E-1,8.710959E-1,-3.2103756E-1,-9.082128E-2,-4.600286E-2,-2.192651E-1,8.6877204E-2,2.983418E-1,-1.0782676E-1,-1.4904934E-2,2.5509414E-1,4.6041623E-1,-1.0656646E-3,1.6181761E-1,4.3689552E-1,6.752246E-1,7.96074E-1,1.1948897E0,-3.7385747E-1,-2.680489E-1,3.2292865E-2,-2.1417078E-1,-1.3142784E-1,8.278935E-2,1.6060926E-2,-2.2457369E-1,-1.5486119E-3,2.1103524E-1,2.4464762E-1,3.945611E-2,-1.1441261E-1,6.76537E-2,3.2649238E-2,-4.8611958E-2,1.9819549E-1,6.166955E-1,4.1940254E-1,7.185331E-1,-1.3965614E-2,3.3085045E-1,1.572858E-1,5.937171E-2,3.3539072E-1,5.785627E-1,7.3121434E-1,-1.1881032E-2,8.2097566E-1,1.8271444E-2,5.153399E-2,1.1607208E-1,-3.5518494E-2,-2.4416817E-2,-8.844734E-3,-2.5071565E-2,-1.3423419E-3,3.926951E-2,-1.8991193E-2,-6.5618358E-3,-6.868522E-3,-4.8746508E-2,8.139604E-3,-6.4462954E-3,-2.0238273E-2,-1.4888065E-2,-2.5379823E-3,1.9881394E-2,2.0957738E-2,1.1302538E-3,2.1951599E-2,-7.239068E-3,-9.771243E-3,3.8865726E-3,9.420844E-3,-2.1132566E-2,-3.119585E-4,1.1085844E-2,1.2639469E-3,-6.0096453E-3,1.3020421E-2,5.2046068E-2,3.404806E-2,6.4145185E-2,4.259895E-2,3.0309774E-2,6.496492E-2,-0E0,-4.5007835E-3,4.7991043E-3,-1.7828748E-4,3.1363435E-2,1.1953571E-2,3.3125058E-2,2.4776412E-2,4.8019722E-2,4.9380515E-2,8.663295E-3,5.1714566E-2,7.9322025E-2,5.8904875E-2,7.987773E-2],"categories":[],"categories_nodes":[],"categories_segments":[],"categories_sizes":[],"default_left":[0,0,0,0,0,0,0,0,0,0,0,0,0,0,0,0,0,0,0,0,0,0,0,0,0,0,0,0,0,0,0,0,0,0,0,0,0,0,0,0,0,0,0,0,0,0,0,0,0,0,0,0,0,0,0,0,0,0,0,0,0,0,0,0,0,0,0,0,0,0,0,0,0,0,0,0,0,0,0,0,0,0,0,0,0,0,0,0,0,0,0,0,0,0,0,0,0,0,0,0,0,0,0,0,0,0,0,0,0,0,0,0,0],"id":5,"left_children":[1,3,5,7,9,11,13,15,17,19,21,23,25,27,29,31,33,35,37,39,41,43,45,47,49,51,53,55,57,59,61,63,65,67,69,71,73,-1,75,77,79,81,-1,83,85,87,89,91,93,95,97,99,101,103,-1,105,107,109,-1,111,-1,-1,-1,-1,-1,-1,-1,-1,-1,-1,-1,-1,-1,-1,-1,-1,-1,-1,-1,-1,-1,-1,-1,-1,-1,-1,-1,-1,-1,-1,-1,-1,-1,-1,-1,-1,-1,-1,-1,-1,-1,-1,-1,-1,-1,-1,-1,-1,-1,-1,-1,-1,-1],"loss_changes":[2.0235333E2,3.4377792E1,6.107756E1,3.6598206E0,1.7891296E1,2.2785275E1,1.0411575E1,3.4706688E0,3.1139336E0,3.3373294E0,2.038519E0,5.2269745E0,7.5774407E0,3.2798157E0,1.2059708E0,1.5149117E0,1.1944313E0,1.3359933E0,2.1389694E0,3.545463E0,8.4137535E-1,1.703188E0,4.6161553E-1,7.470623E0,1.6491814E0,2.4049382E0,1.3002815E0,3.669033E0,3.9948921E0,8.6672974E-1,1.1116867E0,1.2192688E0,2.0939655E0,9.332744E-1,6.825328E-2,1.4680104E0,1.5895936E-1,0E0,9.220505E-1,1.4048594E0,1.312676E0,8.407726E-1,0E0,1.7906017E0,8.976451E-1,4.708305E-1,2.9567873E-1,5.0073004E0,1.3047695E0,4.9086952E-1,1.6005201E0,1.7170593E0,4.678762E-1,1.0331001E0,0E0,8.319893E-1,1.9168167E0,9.1669464E-1,0E0,2.6349258E-1,0E0,0E0,0E0,0E0,0E0,0E0,0E0,0E0,0E0,0E0,0E0,0E0,0E0,0E0,0E0,0E0,0E0,0E0,0E0,0E0,0E0,0E0,0E0,0E0,0E0,0E0,0E0,0E0,0E0,0E0,0E0,0E0,0E0,0E0,0E0,0E0,0E0,0E0,0E0,0E0,0E0,0E0,0E0,0E0,0E0,0E0,0E0,0E0,0E0,0E0,0E0,0E0,0E0],"parents":[2147483647,0,0,1,1,2,2,3,3,4,4,5,5,6,6,7,7,8,8,9,9,10,10,11,11,12,12,13,13,14,14,15,15,16,16,17,17,18,18,19,19,20,20,21,21,22,22,23,23,24,24,25,25,26,26,27,27,28,28,29,29,30,30,31,31,32,32,33,33,34,34,35,35,36,36,38,38,39,39,40,40,41,41,43,43,44,44,45,45,46,46,47,47,48,48,49,49,50,50,51,51,52,52,53,53,55,55,56,56,57,57,59,59],"right_children":[2,4,6,8,10,12,14,16,18,20,22,24,26,28,30,32,34,36,38,40,42,44,46,48,50,52,54,56,58,60,62,64,66,68,70,72,74,-1,76,78,80,82,-1,84,86,88,90,92,94,96,98,100,102,104,-1,106,108,110,-1,112,-1,-1,-1,-1,-1,-1,-1,-1,-1,-1,-1,-1,-1,-1,-1,-1,-1,-1,-1,-1,-1,-1,-1,-1,-1,-1,-1,-1,-1,-1,-1,-1,-1,-1,-1,-1,-1,-1,-1,-1,-1,-1,-1,-1,-1,-1,-1,-1,-1,-1,-1,-1,-1],"split_conditions":[4.7344427E0,4.356709E0,5.198497E0,4.0073333E0,3E0,4E0,5.616771E0,3E0,2E0,4.6151204E0,4.6746964E0,5E0,4.912655E0,5E0,1E0,3.8066626E0,3.8066626E0,5E0,4.019943E1,5E0,2E0,1E0,4E0,2E0,5.1059456E0,1E0,4E0,5.3752785E0,5.560682E0,9E0,5E0,2E0,2E0,3.7841897E0,4E0,3E0,4.3222766E0,1.6060926E-2,4.248495E0,2E0,1E0,4.7229533E0,3.945611E-2,1E0,4.6684265E0,3E0,4.6959248E0,1E0,4.905275E0,3E0,1E0,4E0,4.7552266E0,1E0,5.937171E-2,1E0,3E0,5.4380794E0,-1.1881032E-2,3E0,1.8271444E-2,5.153399E-2,1.1607208E-1,-3.5518494E-2,-2.4416817E-2,-8.844734E-3,-2.5071565E-2,-1.3423419E-3,3.926951E-2,-1.8991193E-2,-6.5618358E-3,-6.868522E-3,-4.8746508E-2,8.139604E-3,-6.4462954E-3,-2.0238273E-2,-1.4888065E-2,-2.5379823E-3,1.9881394E-2,2.0957738E-2,1.1302538E-3,2.1951599E-2,-7.239068E-3,-9.771243E-3,3.8865726E-3,9.420844E-3,-2.1132566E-2,-3.119585E-4,1.1085844E-2,1.2639469E-3,-6.0096453E-3,1.3020421E-2,5.2046068E-2,3.404806E-2,6.4145185E-2,4.259895E-2,3.0309774E-2,6.496492E-2,-0E0,-4.5007835E-3,4.7991043E-3,-1.7828748E-4,3.1363435E-2,1.1953571E-2,3.3125058E-2,2.4776412E-2,4.8019722E-2,4.9380515E-2,8.663295E-3,5.1714566E-2,7.9322025E-2,5.8904875E-2,7.987773E-2],"split_indices":[0,0,0,0,1,1,0,1,1,0,0,6,0,6,12,0,0,6,7,6,2,12,1,2,0,13,2,0,0,1,1,1,1,0,1,6,0,0,0,2,23,0,0,13,0,6,0,12,0,1,12,6,0,13,0,12,6,0,0,2,0,0,0,0,0,0,0,0,0,0,0,0,0,0,0,0,0,0,0,0,0,0,0,0,0,0,0,0,0,0,0,0,0,0,0,0,0,0,0,0,0,0,0,0,0,0,0,0,0,0,0,0,0],"split_type":[0,0,0,0,0,0,0,0,0,0,0,0,0,0,0,0,0,0,0,0,0,0,0,0,0,0,0,0,0,0,0,0,0,0,0,0,0,0,0,0,0,0,0,0,0,0,0,0,0,0,0,0,0,0,0,0,0,0,0,0,0,0,0,0,0,0,0,0,0,0,0,0,0,0,0,0,0,0,0,0,0,0,0,0,0,0,0,0,0,0,0,0,0,0,0,0,0,0,0,0,0,0,0,0,0,0,0,0,0,0,0,0,0],"sum_hessian":[6.053E3,3.896E3,2.157E3,1.731E3,2.165E3,1.705E3,4.52E2,6.75E2,1.056E3,4.18E2,1.747E3,5.66E2,1.139E3,3.56E2,9.6E1,5.99E2,7.6E1,1.19E2,9.37E2,3.2E2,9.8E1,1.462E3,2.85E2,3.72E2,1.94E2,5.67E2,5.72E2,2.74E2,8.2E1,8.1E1,1.5E1,2.96E2,3.03E2,3.8E1,3.8E1,7.2E1,4.7E1,1.1E1,9.26E2,1.87E2,1.33E2,7.9E1,1.9E1,1.41E3,5.2E1,1.17E2,1.68E2,3.23E2,4.9E1,1.7E2,2.4E1,5.47E2,2E1,5.69E2,3E0,1.62E2,1.12E2,7.7E1,5E0,7.7E1,4E0,6E0,9E0,1.43E2,1.53E2,6.9E1,2.34E2,3.5E1,3E0,3.1E1,7E0,6.7E1,5E0,4.3E1,4E0,5.28E2,3.98E2,1.68E2,1.9E1,1.05E2,2.8E1,7.3E1,6E0,1.347E3,6.3E1,4.6E1,6E0,8.7E1,3E1,4.8E1,1.2E2,3.01E2,2.2E1,2.6E1,2.3E1,4.1E1,1.29E2,2.1E1,3E0,3.49E2,1.98E2,3E0,1.7E1,5.54E2,1.5E1,1.5E2,1.2E1,1.03E2,9E0,6.1E1,1.6E1,5.6E1,2.1E1],"tree_param":{"num_deleted":"0","num_feature":"31","num_nodes":"113","size_leaf_vector":"1"}},{"base_weights":[3.6584204E-3,-8.173707E-2,3.2450822E-1,-1.993151E-1,6.873894E-3,2.4856812E-1,6.4214724E-1,-2.739431E-1,-1.6503462E-1,2.316324E-1,-3.0094884E-2,2.315231E-1,6.9337404E-1,6.532302E-1,1.6088858E-1,-3.0007637E-1,-5.887388E-2,-2.6021915E-2,-1.8146469E-1,1.475688E-1,3.757744E-1,-8.1011236E-2,2.6832517E-2,1.8489784E-1,3.510346E-1,7.329676E-1,1.2678821E-2,5.951192E-1,7.035248E-2,5.6530867E-2,-3.200646E-2,-3.2815883E-1,-2.0075452E-1,1.3084906E-1,-1.5459214E-1,-1.0341175E-1,7.2525926E-2,4.603437E-2,-1.892811E-1,1.18204154E-1,3.9607504E-1,2.8871405E-1,4.4816995E-1,1.07870854E-1,-9.156602E-2,1.3332893E-1,-2.452045E-2,2.9679176E-1,1.4311562E-1,2.607603E-1,5.591099E-1,6.1391223E-2,2.8787037E-2,6.126115E-1,1.6026257E-1,-2.6708834E-2,1.7354727E-2,-1.70226E-2,1.6265266E-2,1.2799336E-2,-2.3889616E-3,-4.13407E-2,-8.612053E-3,-5.7459166E-3,-3.925442E-2,3.2228017E-3,1.2576282E-2,1.2855368E-2,-1.481435E-4,-1.8711913E-2,-1.2263239E-2,8.7251526E-4,1.707568E-2,2.3810774E-2,4.0317766E-2,3.142284E-2,1.0828156E-2,4.6396893E-2,2.1849805E-2,1.1406678E-2,-1.1582359E-2,-7.902756E-3,4.553932E-3,5.342699E-3,2.060489E-2,-4.441744E-3,4.2101513E-3,1.7022617E-2,3.883911E-2,3.5531107E-2,9.9413125E-3,2.2891816E-2,8.728338E-3,3.1562634E-2,6.0453255E-2,4.6321906E-2,6.324839E-2,-1.8583136E-2,4.3260947E-2],"categories":[],"categories_nodes":[],"categories_segments":[],"categories_sizes":[],"default_left":[0,0,0,0,0,0,0,0,0,0,0,0,0,0,0,0,0,0,0,0,0,0,0,0,0,0,0,0,0,0,0,0,0,0,0,0,0,0,0,0,0,0,0,0,0,0,0,0,0,0,0,0,0,0,0,0,0,0,0,0,0,0,0,0,0,0,0,0,0,0,0,0,0,0,0,0,0,0,0,0,0,0,0,0,0,0,0,0,0,0,0,0,0,0,0,0,0,0,0],"id":6,"left_children":[1,3,5,7,9,11,13,15,17,19,21,23,25,27,29,31,33,35,37,39,41,43,45,47,49,51,-1,53,-1,-1,-1,55,57,59,61,63,65,67,69,71,73,75,77,79,81,83,85,87,89,91,93,-1,-1,95,97,-1,-1,-1,-1,-1,-1,-1,-1,-1,-1,-1,-1,-1,-1,-1,-1,-1,-1,-1,-1,-1,-1,-1,-1,-1,-1,-1,-1,-1,-1,-1,-1,-1,-1,-1,-1,-1,-1,-1,-1,-1,-1,-1,-1],"loss_changes":[1.6474696E2,4.9488617E1,3.0240936E1,5.132347E0,2.2528025E1,7.4954987E0,1.1096039E0,3.5435333E0,3.1766815E0,4.53306E0,6.749585E0,5.3757477E0,5.782814E-1,2.4441528E0,2.4563992E0,1.4710732E0,1.3119589E0,1.1545788E0,2.2511597E0,1.6822958E0,6.7930794E-1,2.458394E0,6.019009E0,3.242262E0,4.9377823E0,4.784012E-2,0E0,1.2850113E0,0E0,0E0,0E0,1.4578171E0,6.711693E-1,1.301957E-1,6.979604E-1,9.483083E-1,1.541036E-1,2.467834E-1,1.8716812E0,2.2234683E0,3.537512E-2,9.633832E-1,1.4634514E0,5.904838E-1,1.2585335E0,2.9099698E0,1.7754402E0,2.8705025E0,2.8441486E0,6.7618465E-1,2.2394257E0,0E0,0E0,5.052872E-1,1.5007514E0,0E0,0E0,0E0,0E0,0E0,0E0,0E0,0E0,0E0,0E0,0E0,0E0,0E0,0E0,0E0,0E0,0E0,0E0,0E0,0E0,0E0,0E0,0E0,0E0,0E0,0E0,0E0,0E0,0E0,0E0,0E0,0E0,0E0,0E0,0E0,0E0,0E0,0E0,0E0,0E0,0E0,0E0,0E0,0E0],"parents":[2147483647,0,0,1,1,2,2,3,3,4,4,5,5,6,6,7,7,8,8,9,9,10,10,11,11,12,12,13,13,14,14,15,15,16,16,17,17,18,18,19,19,20,20,21,21,22,22,23,23,24,24,25,25,27,27,31,31,32,32,33,33,34,34,35,35,36,36,37,37,38,38,39,39,40,40,41,41,42,42,43,43,44,44,45,45,46,46,47,47,48,48,49,49,50,50,53,53,54,54],"right_children":[2,4,6,8,10,12,14,16,18,20,22,24,26,28,30,32,34,36,38,40,42,44,46,48,50,52,-1,54,-1,-1,-1,56,58,60,62,64,66,68,70,72,74,76,78,80,82,84,86,88,90,92,94,-1,-1,96,98,-1,-1,-1,-1,-1,-1,-1,-1,-1,-1,-1,-1,-1,-1,-1,-1,-1,-1,-1,-1,-1,-1,-1,-1,-1,-1,-1,-1,-1,-1,-1,-1,-1,-1,-1,-1,-1,-1,-1,-1,-1,-1,-1,-1],"split_conditions":[4.912655E0,4.4127984E0,5.3752785E0,3.988984E0,3E0,3E0,9E0,3E0,2E0,4.658711E0,4.6821313E0,5.164786E0,5.3514314E0,5.7430034E0,5.90277E0,1E0,3.465736E0,5E0,-8.622289E0,2E0,4.744932E0,-8.622289E0,4E0,4E0,4E0,5E0,1.2678821E-2,7E0,7.035248E-2,5.6530867E-2,-3.200646E-2,4E0,1E0,5E0,3.5695326E0,3E0,4.2104964E0,-8.660143E0,4.248495E0,3E0,4.6051702E0,4.704563E0,4.7552266E0,4E0,1E0,3E0,5E0,4E0,-8.618639E0,6E0,1E0,6.1391223E-2,2.8787037E-2,3E0,5.521461E0,-2.6708834E-2,1.7354727E-2,-1.70226E-2,1.6265266E-2,1.2799336E-2,-2.3889616E-3,-4.13407E-2,-8.612053E-3,-5.7459166E-3,-3.925442E-2,3.2228017E-3,1.2576282E-2,1.2855368E-2,-1.481435E-4,-1.8711913E-2,-1.2263239E-2,8.7251526E-4,1.707568E-2,2.3810774E-2,4.0317766E-2,3.142284E-2,1.0828156E-2,4.6396893E-2,2.1849805E-2,1.1406678E-2,-1.1582359E-2,-7.902756E-3,4.553932E-3,5.342699E-3,2.060489E-2,-4.441744E-3,4.2101513E-3,1.7022617E-2,3.883911E-2,3.5531107E-2,9.9413125E-3,2.2891816E-2,8.728338E-3,3.1562634E-2,6.0453255E-2,4.6321906E-2,6.324839E-2,-1.8583136E-2,4.3260947E-2],"split_indices":[0,0,0,0,1,2,1,1,1,0,0,0,0,0,0,11,0,6,8,2,0,8,1,1,6,1,0,1,0,0,0,3,13,1,0,6,0,8,0,6,0,0,0,1,13,6,6,6,8,1,11,0,0,2,0,0,0,0,0,0,0,0,0,0,0,0,0,0,0,0,0,0,0,0,0,0,0,0,0,0,0,0,0,0,0,0,0,0,0,0,0,0,0,0,0,0,0,0,0],"split_type":[0,0,0,0,0,0,0,0,0,0,0,0,0,0,0,0,0,0,0,0,0,0,0,0,0,0,0,0,0,0,0,0,0,0,0,0,0,0,0,0,0,0,0,0,0,0,0,0,0,0,0,0,0,0,0,0,0,0,0,0,0,0,0,0,0,0,0,0,0,0,0,0,0,0,0,0,0,0,0,0,0,0,0,0,0,0,0,0,0,0,0,0,0,0,0,0,0,0,0],"sum_hessian":[6.01E3,4.747E3,1.263E3,2.04E3,2.707E3,1.021E3,2.42E2,6.39E2,1.401E3,3.82E2,2.325E3,9.85E2,3.6E1,2.36E2,6E0,5.69E2,7E1,1.49E2,1.252E3,2.43E2,1.39E2,1.228E3,1.097E3,7.11E2,2.74E2,3.3E1,3E0,1.91E2,4.5E1,3E0,3E0,4.41E2,1.28E2,2.3E1,4.7E1,8.4E1,6.5E1,4.1E1,1.211E3,2.19E2,2.4E1,6.6E1,7.3E1,6.4E1,1.164E3,3.57E2,7.4E2,1.91E2,5.2E2,1.93E2,8.1E1,2.9E1,4E0,1.83E2,8E0,4.37E2,4E0,1.25E2,3E0,2E1,3E0,4E0,4.3E1,7.9E1,5E0,4.9E1,1.6E1,1.2E1,2.9E1,5.37E2,6.74E2,1.04E2,1.15E2,1.5E1,9E0,3.8E1,2.8E1,4E1,3.3E1,5.7E1,7E0,1.111E3,5.3E1,2.34E2,1.23E2,5.29E2,2.11E2,1.34E2,5.7E1,2.9E1,4.91E2,1.64E2,2.9E1,4.6E1,3.5E1,1.58E2,2.5E1,4E0,4E0],"tree_param":{"num_deleted":"0","num_feature":"31","num_nodes":"99","size_leaf_vector":"1"}},{"base_weights":[4.116902E-3,-1.0721741E-1,2.0822261E-1,-1.920656E-1,-3.66312E-2,1.3792065E-1,4.7148415E-1,-2.732397E-1,-1.6823511E-1,1.08181626E-1,-7.23051E-2,2.7171063E-1,7.1169786E-2,4.2976475E-1,7.6916105E-1,-3.1110758E-1,1.8080963E-2,-2.86174E-2,-1.9086921E-1,6.0664847E-2,2.4966452E-1,2.0533921E-1,-7.77269E-2,2.2653988E-1,4.5940813E-1,-1.08674355E-2,1.2630646E-1,3.5343707E-1,5.121742E-1,6.762464E-2,-1.0091345E-2,-1.7336056E-2,-3.2186833E-1,1.5292034E-1,-8.376006E-2,-1.0196926E-1,7.68505E-2,6.2261373E-3,-1.9710442E-1,-1.4590834E-3,1.4991301E-1,4.434548E-2,2.3130241E-1,2.6125872E-1,-5.854001E-3,-7.3488645E-2,-2.7449414E-2,-3.81071E-2,2.3559016E-1,4.3958616E-2,4.1812152E-1,-1.8707633E-2,3.843296E-2,3.8291007E-1,1.1370089E-1,2.8667498E-1,5.6067747E-1,5.243203E-1,2.8099197E-1,3.145099E-3,-1.1773474E-2,-3.0677136E-2,-2.135565E-2,1.5216037E-2,-2.2456245E-3,-3.8694892E-2,1.979443E-4,-6.2443963E-3,-2.5124423E-2,7.254746E-3,-1.4693057E-2,4.935488E-3,-1.8081538E-2,-1.8124599E-2,-1.34755485E-2,1.9764092E-2,-9.2027313E-4,1.2946291E-2,-1.3208747E-2,1.9736137E-2,5.7911775E-3,1.1617591E-2,2.8782547E-2,-9.781624E-3,-4.446921E-3,1.4710343E-2,2.6943156E-2,1.8186113E-2,4.0871475E-2,2.5754916E-2,-2.192679E-3,2.0159526E-2,4.7115177E-2,9.629588E-3,-1.2113049E-2,6.436219E-2,2.1697225E-2,6.2324937E-2,2.602255E-2,4.711358E-2,3.651565E-2,-1.4627474E-2,5.2216735E-2],"categories":[],"categories_nodes":[],"categories_segments":[],"categories_sizes":[],"default_left":[0,0,0,0,0,0,0,0,0,0,0,0,0,0,0,0,0,0,0,0,0,0,0,0,0,0,0,0,0,0,0,0,0,0,0,0,0,0,0,0,0,0,0,0,0,0,0,0,0,0,0,0,0,0,0,0,0,0,0,0,0,0,0,0,0,0,0,0,0,0,0,0,0,0,0,0,0,0,0,0,0,0,0,0,0,0,0,0,0,0,0,0,0,0,0,0,0,0,0,0,0,0,0],"id":7,"left_children":[1,3,5,7,9,11,13,15,17,19,21,23,25,27,29,31,33,35,37,39,41,43,45,47,49,51,53,55,57,-1,-1,59,61,63,65,67,69,71,73,75,77,-1,79,81,-1,83,-1,-1,85,-1,87,89,-1,91,93,95,97,99,101,-1,-1,-1,-1,-1,-1,-1,-1,-1,-1,-1,-1,-1,-1,-1,-1,-1,-1,-1,-1,-1,-1,-1,-1,-1,-1,-1,-1,-1,-1,-1,-1,-1,-1,-1,-1,-1,-1,-1,-1,-1,-1,-1,-1],"loss_changes":[1.3828505E2,2.3549229E1,3.96288E1,3.3666916E0,1.1116383E1,1.5101593E1,5.162895E0,4.4807034E0,4.349354E0,2.8110151E0,2.602909E0,4.609173E0,5.1422925E0,2.2421722E0,3.8599796E0,1.0890465E0,6.651371E-1,1.5189201E0,1.4839706E0,1.7892873E0,3.8619614E-1,5.5188036E-1,1.8396492E0,2.9952393E0,7.5128555E-2,1.7192047E0,2.1031208E0,2.6738853E0,3.0285263E-1,0E0,0E0,1.1954088E-1,9.9634933E-1,1.6324645E-1,9.80477E-1,5.246146E-1,2.9566953E-1,4.7414768E-1,8.9730453E-1,4.5105368E-1,5.2187777E-1,0E0,1.9984102E-1,2.1736264E-1,0E0,1.4338217E0,0E0,0E0,2.2513676E0,0E0,1.2083731E0,1.3131241E0,0E0,6.0364676E-1,1.1625757E0,9.7116756E-1,2.2064857E0,4.0711975E-1,2.2353175E0,0E0,0E0,0E0,0E0,0E0,0E0,0E0,0E0,0E0,0E0,0E0,0E0,0E0,0E0,0E0,0E0,0E0,0E0,0E0,0E0,0E0,0E0,0E0,0E0,0E0,0E0,0E0,0E0,0E0,0E0,0E0,0E0,0E0,0E0,0E0,0E0,0E0,0E0,0E0,0E0,0E0,0E0,0E0,0E0],"parents":[2147483647,0,0,1,1,2,2,3,3,4,4,5,5,6,6,7,7,8,8,9,9,10,10,11,11,12,12,13,13,14,14,15,15,16,16,17,17,18,18,19,19,20,20,21,21,22,22,23,23,24,24,25,25,26,26,27,27,28,28,31,31,32,32,33,33,34,34,35,35,36,36,37,37,38,38,39,39,40,40,42,42,43,43,45,45,48,48,50,50,51,51,53,53,54,54,55,55,56,56,57,57,58,58],"right_children":[2,4,6,8,10,12,14,16,18,20,22,24,26,28,30,32,34,36,38,40,42,44,46,48,50,52,54,56,58,-1,-1,60,62,64,66,68,70,72,74,76,78,-1,80,82,-1,84,-1,-1,86,-1,88,90,-1,92,94,96,98,100,102,-1,-1,-1,-1,-1,-1,-1,-1,-1,-1,-1,-1,-1,-1,-1,-1,-1,-1,-1,-1,-1,-1,-1,-1,-1,-1,-1,-1,-1,-1,-1,-1,-1,-1,-1,-1,-1,-1,-1,-1,-1,-1,-1,-1],"split_conditions":[4.7361984E0,4.356709E0,5.198497E0,3.8501475E0,3E0,4E0,5.7430034E0,3E0,2E0,4.60567E0,-8.646863E0,5.030438E0,4.8751974E0,5.3752785E0,9E0,3.218876E0,3.465736E0,5E0,-8.622289E0,5E0,4.624973E0,4.1156075E1,-8.576775E0,2E0,5.0689044E0,4E0,-8.622289E0,5E0,7E0,6.762464E-2,-1.0091345E-2,3E0,2E0,5E0,3.5695326E0,3E0,4.3222766E0,4.115618E1,3E0,-8.673401E0,4.1156075E1,4.434548E-2,4.7132173E0,3.8567455E1,-5.854001E-3,4.470495E0,-2.7449414E-2,-3.81071E-2,5E0,4.3958616E-2,5.1059456E0,-8.622714E0,3.843296E-2,5.062595E0,4.1151043E1,4.113127E1,5.267858E0,5.521461E0,5.521461E0,3.145099E-3,-1.1773474E-2,-3.0677136E-2,-2.135565E-2,1.5216037E-2,-2.2456245E-3,-3.8694892E-2,1.979443E-4,-6.2443963E-3,-2.5124423E-2,7.254746E-3,-1.4693057E-2,4.935488E-3,-1.8081538E-2,-1.8124599E-2,-1.34755485E-2,1.9764092E-2,-9.2027313E-4,1.2946291E-2,-1.3208747E-2,1.9736137E-2,5.7911775E-3,1.1617591E-2,2.8782547E-2,-9.781624E-3,-4.446921E-3,1.4710343E-2,2.6943156E-2,1.8186113E-2,4.0871475E-2,2.5754916E-2,-2.192679E-3,2.0159526E-2,4.7115177E-2,9.629588E-3,-1.2113049E-2,6.436219E-2,2.1697225E-2,6.2324937E-2,2.602255E-2,4.711358E-2,3.651565E-2,-1.4627474E-2,5.2216735E-2],"split_indices":[0,0,0,0,1,1,0,1,1,0,8,0,0,0,1,0,0,6,8,6,0,7,8,1,0,3,8,6,1,0,0,6,1,1,0,6,0,7,1,8,7,0,0,7,0,0,0,0,6,0,0,8,0,0,7,7,0,0,0,0,0,0,0,0,0,0,0,0,0,0,0,0,0,0,0,0,0,0,0,0,0,0,0,0,0,0,0,0,0,0,0,0,0,0,0,0,0,0,0,0,0,0,0],"split_type":[0,0,0,0,0,0,0,0,0,0,0,0,0,0,0,0,0,0,0,0,0,0,0,0,0,0,0,0,0,0,0,0,0,0,0,0,0,0,0,0,0,0,0,0,0,0,0,0,0,0,0,0,0,0,0,0,0,0,0,0,0,0,0,0,0,0,0,0,0,0,0,0,0,0,0,0,0,0,0,0,0,0,0,0,0,0,0,0,0,0,0,0,0,0,0,0,0,0,0,0,0,0,0],"sum_hessian":[6.083E3,3.936E3,2.147E3,1.786E3,2.15E3,1.696E3,4.51E2,4.02E2,1.384E3,4.24E2,1.726E3,5.63E2,1.133E3,3.98E2,5.3E1,3.56E2,4.6E1,1.94E2,1.19E3,3.19E2,1.05E2,3.2E1,1.694E3,4.56E2,1.07E2,4.55E2,6.78E2,2.1E2,1.88E2,4.9E1,4E0,1.3E1,3.43E2,2E1,2.6E1,1.15E2,7.9E1,3.6E1,1.154E3,1.88E2,1.31E2,4E0,1.01E2,2.7E1,5E0,1.669E3,2.5E1,5E0,4.51E2,2.9E1,7.8E1,4.49E2,6E0,3E1,6.48E2,1.61E2,4.9E1,1.77E2,1.1E1,9E0,4E0,1.58E2,1.85E2,1.7E1,3E0,4E0,2.2E1,1.05E2,1E1,7.6E1,3E0,3E1,6E0,5.64E2,5.9E2,6E0,1.82E2,1.27E2,4E0,9.1E1,1E1,1.4E1,1.3E1,4.45E2,1.224E3,3.01E2,1.5E2,2.7E1,5.1E1,1E1,4.39E2,2E1,1E1,6.33E2,1.5E1,3E0,1.58E2,2.4E1,2.5E1,8.6E1,9.1E1,5E0,6E0],"tree_param":{"num_deleted":"0","num_feature":"31","num_nodes":"103","size_leaf_vector":"1"}},{"base_weights":[1.838173E-3,-6.336206E-2,2.9618877E-1,-1.7821251E-1,1.2462341E-2,1.9309857E-1,4.4037E-1,-2.7369934E-1,-1.4991626E-1,1.77952E-1,-1.5538241E-2,3.7756494E-1,1.2685034E-1,3.8051438E-1,6.3645244E-1,-2.960957E-1,-6.887683E-2,-2.8921993E-2,-1.6703984E-1,8.5086845E-2,2.991271E-1,-6.53841E-2,3.3969563E-2,3.1754705E-1,4.8816937E-1,4.5360485E-1,1.1202151E-1,4.078499E-1,1.6600984E-1,6.6246545E-1,1.6334607E-1,-3.0476716E-1,3.2326646E-2,2.419837E-1,-1.3344112E-1,2.043113E-2,-6.1166115E-2,5.207387E-2,-1.7375088E-1,9.849089E-2,-1.2212838E-1,3.1969327E-1,-2.6110178E-1,1.1192659E-1,-7.385588E-2,1.2814556E-1,-1.0501716E-2,2.5460246E-1,5.049039E-1,4.6790548E-2,3.8496274E-1,2.7719912E-1,5.3685088E-2,1.18463024E-1,-1.5024526E-1,3.5962036E-1,5.069738E-1,6.5370877E-3,2.7018982E-1,5.7003784E-1,5.9448414E-2,5.434903E-2,-2.9480578E-2,-2.848021E-2,-2.0690482E-2,-4.9196947E-3,1.895125E-2,7.0814113E-3,2.7865626E-2,-1.4253536E-2,3.972105E-3,-8.639243E-3,4.9326406E-3,-6.0700933E-3,1.0899433E-2,7.3449546E-3,-1.7956397E-2,-1.7287608E-2,-1.176128E-2,5.4159616E-3,1.3310822E-2,-1.8987561E-3,-1.7352179E-2,1.9773567E-2,3.2241482E-2,3.568938E-2,-7.424363E-2,-1.0312418E-2,1.2403023E-2,-5.6547E-3,-2.6757378E-2,6.8497434E-3,1.73553E-2,-1.1738552E-3,4.613316E-2,1.6099565E-2,4.503884E-2,4.342956E-2,1.6742514E-2,1.7373938E-2,4.0358733E-2,-4.5797615E-3,3.146061E-2,9.024913E-3,3.2102924E-2,-1.5618203E-2,-0E0,2.5931777E-2,4.7984414E-2,4.9262132E-2,1.757314E-2,-6.0888366E-3,2.7845835E-3,2.9519442E-2,3.3943465E-3,3.7073974E-2,6.3067816E-2],"categories":[],"categories_nodes":[],"categories_segments":[],"categories_sizes":[],"default_left":[0,0,0,0,0,0,0,0,0,0,0,0,0,0,0,0,0,0,0,0,0,0,0,0,0,0,0,0,0,0,0,0,0,0,0,0,0,0,0,0,0,0,0,0,0,0,0,0,0,0,0,0,0,0,0,0,0,0,0,0,0,0,0,0,0,0,0,0,0,0,0,0,0,0,0,0,0,0,0,0,0,0,0,0,0,0,0,0,0,0,0,0,0,0,0,0,0,0,0,0,0,0,0,0,0,0,0,0,0,0,0,0,0,0,0,0,0],"id":8,"left_children":[1,3,5,7,9,11,13,15,17,19,21,23,25,27,29,31,33,35,37,39,41,43,45,47,49,51,53,55,57,59,61,63,65,67,69,71,73,75,77,79,81,83,85,87,89,91,93,95,97,-1,99,101,-1,103,105,107,109,111,113,115,-1,-1,-1,-1,-1,-1,-1,-1,-1,-1,-1,-1,-1,-1,-1,-1,-1,-1,-1,-1,-1,-1,-1,-1,-1,-1,-1,-1,-1,-1,-1,-1,-1,-1,-1,-1,-1,-1,-1,-1,-1,-1,-1,-1,-1,-1,-1,-1,-1,-1,-1,-1,-1,-1,-1,-1,-1],"loss_changes":[1.16305534E2,4.321279E1,1.6186798E1,5.24749E0,1.3864822E1,7.759491E0,5.01976E0,2.0028E0,3.135151E0,4.808652E0,6.3129535E0,8.8627434E-1,2.1941805E0,1.9447556E0,1.1014404E0,1.187645E0,9.4467896E-1,3.0927068E-1,1.9843102E0,6.9571245E-1,2.2438984E0,1.9196858E0,5.3822894E0,1.1281204E0,2.4679565E-1,4.8637486E-1,7.849846E-1,1.222599E0,6.6834366E-1,1.8296432E-1,2.2025526E0,7.778015E-1,2.4322785E-1,5.6036234E-2,3.410836E-1,3.9910713E-1,3.44057E-1,4.4689214E-1,1.3990822E0,4.524281E-1,1.1066587E-1,9.291611E-1,3.7639363E0,6.2478626E-1,9.427552E-1,1.5068512E0,2.0856447E0,1.2418351E0,1.1420679E-1,0E0,4.3995714E-1,5.607131E-1,0E0,6.1620855E-1,5.6600317E-2,1.5364857E0,2.8759422E0,4.057522E-2,5.0578845E-1,6.9649315E-1,0E0,0E0,0E0,0E0,0E0,0E0,0E0,0E0,0E0,0E0,0E0,0E0,0E0,0E0,0E0,0E0,0E0,0E0,0E0,0E0,0E0,0E0,0E0,0E0,0E0,0E0,0E0,0E0,0E0,0E0,0E0,0E0,0E0,0E0,0E0,0E0,0E0,0E0,0E0,0E0,0E0,0E0,0E0,0E0,0E0,0E0,0E0,0E0,0E0,0E0,0E0,0E0,0E0,0E0,0E0,0E0,0E0],"parents":[2147483647,0,0,1,1,2,2,3,3,4,4,5,5,6,6,7,7,8,8,9,9,10,10,11,11,12,12,13,13,14,14,15,15,16,16,17,17,18,18,19,19,20,20,21,21,22,22,23,23,24,24,25,25,26,26,27,27,28,28,29,29,30,30,31,31,32,32,33,33,34,34,35,35,36,36,37,37,38,38,39,39,40,40,41,41,42,42,43,43,44,44,45,45,46,46,47,47,48,48,50,50,51,51,53,53,54,54,55,55,56,56,57,57,58,58,59,59],"right_children":[2,4,6,8,10,12,14,16,18,20,22,24,26,28,30,32,34,36,38,40,42,44,46,48,50,52,54,56,58,60,62,64,66,68,70,72,74,76,78,80,82,84,86,88,90,92,94,96,98,-1,100,102,-1,104,106,108,110,112,114,116,-1,-1,-1,-1,-1,-1,-1,-1,-1,-1,-1,-1,-1,-1,-1,-1,-1,-1,-1,-1,-1,-1,-1,-1,-1,-1,-1,-1,-1,-1,-1,-1,-1,-1,-1,-1,-1,-1,-1,-1,-1,-1,-1,-1,-1,-1,-1,-1,-1,-1,-1,-1,-1,-1,-1,-1,-1],"split_conditions":[4.94876E0,4.394449E0,5.198497E0,3.8918202E0,3E0,4E0,5.616771E0,3E0,2E0,4.6151204E0,4.6728287E0,1E0,-8.622289E0,6E0,9E0,3E0,3.4011974E0,4.051785E0,-8.622289E0,4.6051702E0,1E0,-8.622289E0,4E0,5.123964E0,5.062595E0,5.075174E0,-8.581941E0,1E0,5.3514314E0,5.7430034E0,5.90277E0,3.6888795E0,3.6635616E0,3.218876E0,1E0,3.9318256E0,4.3694477E0,4.115618E1,4.158883E0,1E0,1E0,4.744932E0,4.752469E0,4.4566703E0,-8.554568E0,4.828314E0,5E0,3E0,5.187386E0,4.6790548E-2,5.1059456E0,4.1138733E1,5.3685088E-2,2E0,4.1178543E1,2E0,5E0,5.267858E0,7E0,2E0,5.9448414E-2,5.434903E-2,-2.9480578E-2,-2.848021E-2,-2.0690482E-2,-4.9196947E-3,1.895125E-2,7.0814113E-3,2.7865626E-2,-1.4253536E-2,3.972105E-3,-8.639243E-3,4.9326406E-3,-6.0700933E-3,1.0899433E-2,7.3449546E-3,-1.7956397E-2,-1.7287608E-2,-1.176128E-2,5.4159616E-3,1.3310822E-2,-1.8987561E-3,-1.7352179E-2,1.9773567E-2,3.2241482E-2,3.568938E-2,-7.424363E-2,-1.0312418E-2,1.2403023E-2,-5.6547E-3,-2.6757378E-2,6.8497434E-3,1.73553E-2,-1.1738552E-3,4.613316E-2,1.6099565E-2,4.503884E-2,4.342956E-2,1.6742514E-2,1.7373938E-2,4.0358733E-2,-4.5797615E-3,3.146061E-2,9.024913E-3,3.2102924E-2,-1.5618203E-2,-0E0,2.5931777E-2,4.7984414E-2,4.9262132E-2,1.757314E-2,-6.0888366E-3,2.7845835E-3,2.9519442E-2,3.3943465E-3,3.7073974E-2,6.3067816E-2],"split_indices":[0,0,0,0,1,1,0,1,1,0,0,11,8,1,1,3,0,0,8,0,3,8,1,0,0,0,8,11,0,0,0,0,0,0,11,0,0,7,0,11,11,0,0,0,8,0,3,2,0,0,0,7,0,2,7,2,1,0,1,2,0,0,0,0,0,0,0,0,0,0,0,0,0,0,0,0,0,0,0,0,0,0,0,0,0,0,0,0,0,0,0,0,0,0,0,0,0,0,0,0,0,0,0,0,0,0,0,0,0,0,0,0,0,0,0,0,0],"split_type":[0,0,0,0,0,0,0,0,0,0,0,0,0,0,0,0,0,0,0,0,0,0,0,0,0,0,0,0,0,0,0,0,0,0,0,0,0,0,0,0,0,0,0,0,0,0,0,0,0,0,0,0,0,0,0,0,0,0,0,0,0,0,0,0,0,0,0,0,0,0,0,0,0,0,0,0,0,0,0,0,0,0,0,0,0,0,0,0,0,0,0,0,0,0,0,0,0,0,0,0,0,0,0,0,0,0,0,0,0,0,0,0,0,0,0,0,0],"sum_hessian":[6.057E3,4.959E3,1.098E3,1.972E3,2.987E3,6.42E2,4.56E2,4.48E2,1.524E3,4.32E2,2.555E3,1.68E2,4.74E2,3.52E2,1.04E2,4.03E2,4.5E1,1.9E2,1.334E3,2.46E2,1.86E2,1.274E3,1.281E3,1.12E2,5.6E1,1.9E1,4.55E2,3.11E2,4.1E1,9.8E1,6E0,3.93E2,1E1,7E0,3.8E1,7.4E1,1.16E2,3.9E1,1.295E3,2.32E2,1.4E1,1.8E2,6E0,5.7E1,1.217E3,4.11E2,8.7E2,8.6E1,2.6E1,2.6E1,3E1,1.2E1,7E0,4.45E2,1E1,2.13E2,9.8E1,1.7E1,2.4E1,5E1,4.8E1,3E0,3E0,1.82E2,2.11E2,7E0,3E0,4E0,3E0,3.1E1,7E0,1.7E1,5.7E1,1.09E2,7E0,3.5E1,4E0,4.97E2,7.98E2,1.62E2,7E1,8E0,6E0,9.9E1,8.1E1,3E0,3E0,8E0,4.9E1,1.204E3,1.3E1,2.8E2,1.31E2,8.65E2,5E0,7.5E1,1.1E1,2.2E1,4E0,1.4E1,1.6E1,3E0,9E0,4.38E2,7E0,7E0,3E0,1.88E2,2.5E1,7E1,2.8E1,3E0,1.4E1,1.6E1,8E0,3.6E1,1.4E1],"tree_param":{"num_deleted":"0","num_feature":"31","num_nodes":"117","size_leaf_vector":"1"}},{"base_weights":[5.5438024E-3,-9.421764E-2,1.8072666E-1,-1.5686741E-1,-2.029587E-2,1.1670356E-1,4.19481E-1,-2.2335956E-1,-1.2930366E-1,1.3641652E-1,-5.3908754E-2,2.2389014E-1,6.310826E-2,3.0256513E-1,5.2550906E-1,-2.4505702E-1,-5.439345E-2,-3.7989966E-3,-1.4448372E-1,1.1085498E-1,3.2070214E-1,9.527251E-2,-6.067901E-2,1.8952537E-1,3.6683974E-1,5.0950654E-2,4.074441E-1,3.3621523E-1,-1.5611449E-2,4.8475498E-1,6.341233E-2,-2.515052E-1,7.764308E-2,1.20997526E-1,-1.3765058E-1,-2.1276858E-2,1.65326E-2,2.0172786E-2,-1.4748445E-1,4.8003606E-2,1.468483E-1,2.2807063E-1,3.129531E-2,-1.2971643E-2,1.3213094E-1,-5.7503294E-2,-2.5963375E-2,1.9856654E-1,-3.415324E-1,3.3659405E-1,4.47148E-2,-3.4411447E-4,1.2563811E-1,1.4162068E-1,4.580423E-1,4.7056544E-1,2.8077564E-1,-1.3262181E-2,4.4811808E-2,4.3590024E-1,7.866613E-1,-2.487108E-2,-1.682924E-2,-0E0,1.2157891E-2,1.676444E-2,1.1218478E-3,-3.5306156E-2,-7.89021E-3,-5.3843856E-4,-2.1290697E-2,-1.2233266E-2,3.6594633E-3,6.5077995E-3,-3.2515372E-3,1.2866659E-2,-9.304127E-3,2.6677068E-2,1.0437567E-2,1.3792937E-2,-9.488414E-3,-5.090784E-3,4.969049E-3,2.6797026E-2,1.2796525E-2,4.4458467E-3,-4.887282E-2,2.8227117E-2,1.0050739E-2,-6.0630403E-4,2.2914574E-2,9.602795E-3,4.6962958E-2,2.0866133E-2,-0E0,3.8566478E-2,1.1540115E-2,4.1034713E-2,6.622365E-4,1.9901428E-2,4.46121E-2,1.3495982E-4,7.979092E-3,3.5224553E-2,8.113754E-3,7.057741E-2,3.3999458E-2],"categories":[],"categories_nodes":[],"categories_segments":[],"categories_sizes":[],"default_left":[0,0,0,0,0,0,0,0,0,0,0,0,0,0,0,0,0,0,0,0,0,0,0,0,0,0,0,0,0,0,0,0,0,0,0,0,0,0,0,0,0,0,0,0,0,0,0,0,0,0,0,0,0,0,0,0,0,0,0,0,0,0,0,0,0,0,0,0,0,0,0,0,0,0,0,0,0,0,0,0,0,0,0,0,0,0,0,0,0,0,0,0,0,0,0,0,0,0,0,0,0,0,0,0,0,0,0],"id":9,"left_children":[1,3,5,7,9,11,13,15,17,19,21,23,25,27,29,31,33,35,37,39,41,43,45,47,49,51,53,55,57,59,-1,61,63,65,67,69,-1,-1,71,73,75,77,-1,-1,79,81,-1,83,85,87,-1,89,91,93,95,97,99,-1,101,103,105,-1,-1,-1,-1,-1,-1,-1,-1,-1,-1,-1,-1,-1,-1,-1,-1,-1,-1,-1,-1,-1,-1,-1,-1,-1,-1,-1,-1,-1,-1,-1,-1,-1,-1,-1,-1,-1,-1,-1,-1,-1,-1,-1,-1,-1,-1],"loss_changes":[1.0561866E2,1.780915E1,3.3419167E1,3.753521E0,9.312141E0,9.901245E0,5.497711E0,2.185732E0,2.79665E0,1.3910074E0,1.4738855E0,2.7043972E0,4.7727623E0,2.4248981E0,2.111847E0,1.1564064E0,1.0551016E0,5.7807004E-1,1.59305E0,5.97841E-1,9.044695E-2,6.161686E-1,1.1120801E0,2.295765E0,3.6141872E-1,4.2957153E0,3.9972305E-1,1.2973022E0,2.191425E-1,2.6617432E0,0E0,1.1723824E0,7.2262965E-2,1.9259262E-1,4.8314458E-1,5.0518936E-1,0E0,0E0,1.3893986E0,3.1183058E-1,6.63502E-1,1.0554218E-1,0E0,0E0,5.9142095E-1,1.0162358E0,0E0,2.3194084E0,9.4525546E-1,2.4367332E-1,0E0,1.3498356E0,1.0377231E0,1.116709E-1,1.0920572E-1,1.0600567E0,1.0745087E0,0E0,2.7588543E-2,1.738472E-1,4.6201324E-1,0E0,0E0,0E0,0E0,0E0,0E0,0E0,0E0,0E0,0E0,0E0,0E0,0E0,0E0,0E0,0E0,0E0,0E0,0E0,0E0,0E0,0E0,0E0,0E0,0E0,0E0,0E0,0E0,0E0,0E0,0E0,0E0,0E0,0E0,0E0,0E0,0E0,0E0,0E0,0E0,0E0,0E0,0E0,0E0,0E0,0E0],"parents":[2147483647,0,0,1,1,2,2,3,3,4,4,5,5,6,6,7,7,8,8,9,9,10,10,11,11,12,12,13,13,14,14,15,15,16,16,17,17,18,18,19,19,20,20,21,21,22,22,23,23,24,24,25,25,26,26,27,27,28,28,29,29,31,31,32,32,33,33,34,34,35,35,38,38,39,39,40,40,41,41,44,44,45,45,47,47,48,48,49,49,51,51,52,52,53,53,54,54,55,55,56,56,58,58,59,59,60,60],"right_children":[2,4,6,8,10,12,14,16,18,20,22,24,26,28,30,32,34,36,38,40,42,44,46,48,50,52,54,56,58,60,-1,62,64,66,68,70,-1,-1,72,74,76,78,-1,-1,80,82,-1,84,86,88,-1,90,92,94,96,98,100,-1,102,104,106,-1,-1,-1,-1,-1,-1,-1,-1,-1,-1,-1,-1,-1,-1,-1,-1,-1,-1,-1,-1,-1,-1,-1,-1,-1,-1,-1,-1,-1,-1,-1,-1,-1,-1,-1,-1,-1,-1,-1,-1,-1,-1,-1,-1,-1,-1],"split_conditions":[4.727388E0,4.4127984E0,5.198497E0,3.9702919E0,3E0,4E0,5.3752785E0,3E0,2E0,2E0,-8.622289E0,5.0238805E0,1E0,6E0,1E0,3E0,3.465736E0,4.3694477E0,4.019943E1,4.5108595E0,4.6051702E0,4.4566703E0,-8.553641E0,4E0,2E0,4.94876E0,4.8121843E0,5.236442E0,5.267858E0,4E0,6.341233E-2,3.713572E0,4E0,3.4011974E0,3.5695326E0,4.3222766E0,1.65326E-2,2.0172786E-2,1E0,4.4886365E0,4.7132173E0,4.470495E0,3.129531E-2,-1.2971643E-2,4E0,1E0,-2.5963375E-2,3E0,4.7706847E0,1E0,4.47148E-2,1E0,4E0,4.7791233E0,5.130786E0,1E0,2E0,-1.3262181E-2,5.327876E0,4E0,5E0,-2.487108E-2,-1.682924E-2,-0E0,1.2157891E-2,1.676444E-2,1.1218478E-3,-3.5306156E-2,-7.89021E-3,-5.3843856E-4,-2.1290697E-2,-1.2233266E-2,3.6594633E-3,6.5077995E-3,-3.2515372E-3,1.2866659E-2,-9.304127E-3,2.6677068E-2,1.0437567E-2,1.3792937E-2,-9.488414E-3,-5.090784E-3,4.969049E-3,2.6797026E-2,1.2796525E-2,4.4458467E-3,-4.887282E-2,2.8227117E-2,1.0050739E-2,-6.0630403E-4,2.2914574E-2,9.602795E-3,4.6962958E-2,2.0866133E-2,-0E0,3.8566478E-2,1.1540115E-2,4.1034713E-2,6.622365E-4,1.9901428E-2,4.46121E-2,1.3495982E-4,7.979092E-3,3.5224553E-2,8.113754E-3,7.057741E-2,3.3999458E-2],"split_indices":[0,0,0,0,1,1,0,1,1,2,8,0,13,1,12,3,0,0,7,0,0,0,8,3,2,0,0,0,0,2,0,0,3,0,0,0,0,0,12,0,0,0,0,0,1,12,0,1,0,12,0,29,2,0,0,3,2,0,0,3,1,0,0,0,0,0,0,0,0,0,0,0,0,0,0,0,0,0,0,0,0,0,0,0,0,0,0,0,0,0,0,0,0,0,0,0,0,0,0,0,0,0,0,0,0,0,0],"split_type":[0,0,0,0,0,0,0,0,0,0,0,0,0,0,0,0,0,0,0,0,0,0,0,0,0,0,0,0,0,0,0,0,0,0,0,0,0,0,0,0,0,0,0,0,0,0,0,0,0,0,0,0,0,0,0,0,0,0,0,0,0,0,0,0,0,0,0,0,0,0,0,0,0,0,0,0,0,0,0,0,0,0,0,0,0,0,0,0,0,0,0,0,0,0,0,0,0,0,0,0,0,0,0,0,0,0,0],"sum_hessian":[6.041E3,3.849E3,2.192E3,2.082E3,1.767E3,1.73E3,4.62E2,6.07E2,1.475E3,3.11E2,1.456E3,5.75E2,1.155E3,2.22E2,2.4E2,5.37E2,7E1,1.6E2,1.315E3,2.75E2,3.6E1,6.2E1,1.394E3,4.66E2,1.09E2,1.117E3,3.8E1,2.01E2,2.1E1,2.11E2,2.9E1,5.27E2,1E1,2.2E1,4.8E1,1.49E2,1.1E1,9E0,1.306E3,1.02E2,1.73E2,1.8E1,1.8E1,7E0,5.5E1,1.379E3,1.5E1,4.59E2,7E0,9.7E1,1.2E1,6.62E2,4.55E2,7E0,3.1E1,5.6E1,1.45E2,6E0,1.5E1,1.84E2,2.7E1,2.12E2,3.15E2,5E0,5E0,1.1E1,1.1E1,4E0,4.4E1,1.42E2,7E0,1.271E3,3.5E1,7.5E1,2.7E1,1.65E2,8E0,7E0,1.1E1,4.8E1,7E0,1.313E3,6.6E1,9.9E1,3.6E2,3E0,4E0,8.9E1,8E0,6.47E2,1.5E1,4.51E2,4E0,3E0,4E0,2.8E1,3E0,5.1E1,5E0,1.32E2,1.3E1,1E1,5E0,1.81E2,3E0,2E1,7E0],"tree_param":{"num_deleted":"0","num_feature":"31","num_nodes":"107","size_leaf_vector":"1"}},{"base_weights":[-4.429802E-4,-1.1416866E-2,3.940701E-1,-2.9561326E-2,2.0547466E-1,2.0554109E-2,4.9198398E-1,-5.9411336E-2,4.485334E-2,1.7227162E-1,6.037156E-1,5.0521487E-1,3.7034494E-3,-1.685751E-1,-2.3433696E-2,3.1270785E-4,1.21402465E-1,1.5803364E-1,5.9489566E-1,5.223339E-1,6.629691E-2,3.345395E-2,6.271878E-1,-1.8685089E-1,1.1462178E-1,-3.486959E-2,1.9284701E-1,-5.4364013E-3,2.1443155E-1,-1.3866235E-1,1.3038026E-1,1.3304242E-1,3.0652305E-1,3.208711E-2,6.43815E-2,4.421912E-2,1.4137485E-2,6.0034025E-2,2.5609095E-2,-1.6199032E-2,8.889844E-4,-8.637465E-3,2.2228872E-2,-3.0959614E-3,3.3311613E-2,2.1404872E-2,9.91659E-3,-2.1495933E-5,-1.6068883E-2,9.183727E-3,2.3803497E-2,-2.0633701E-2,-3.1414311E-3,-4.216774E-3,1.1423069E-2,9.532077E-3,3.1315453E-2,2.2050247E-2,4.4216387E-2],"categories":[],"categories_nodes":[],"categories_segments":[],"categories_sizes":[],"default_left":[0,0,0,0,0,0,0,0,0,0,0,0,0,0,0,0,0,0,0,0,0,0,0,0,0,0,0,0,0,0,0,0,0,0,0,0,0,0,0,0,0,0,0,0,0,0,0,0,0,0,0,0,0,0,0,0,0,0,0],"id":10,"left_children":[1,3,5,7,9,-1,11,13,15,17,19,21,-1,23,25,27,29,31,33,35,-1,-1,37,39,41,43,45,47,49,51,53,55,57,-1,-1,-1,-1,-1,-1,-1,-1,-1,-1,-1,-1,-1,-1,-1,-1,-1,-1,-1,-1,-1,-1,-1,-1,-1,-1],"loss_changes":[2.5916306E1,2.2943552E1,1.9740868E0,1.1963485E1,5.7686615E0,0E0,4.698696E-1,1.5073983E1,5.2419014E0,2.3399124E0,5.458927E-2,5.886841E-1,0E0,4.955862E0,7.146366E0,1.2235141E0,1.3387518E0,1.41819E0,8.540392E-2,1.2361193E-1,0E0,0E0,9.77232E-1,2.7919064E0,2.1544433E0,4.729475E0,6.7399883E-1,9.4024444E-1,1.3991165E-1,1.8537292E-1,1.2614794E0,1.155057E0,1.9835472E-1,0E0,0E0,0E0,0E0,0E0,0E0,0E0,0E0,0E0,0E0,0E0,0E0,0E0,0E0,0E0,0E0,0E0,0E0,0E0,0E0,0E0,0E0,0E0,0E0,0E0,0E0],"parents":[2147483647,0,0,1,1,2,2,3,3,4,4,6,6,7,7,8,8,9,9,10,10,11,11,13,13,14,14,15,15,16,16,17,17,18,18,19,19,22,22,23,23,24,24,25,25,26,26,27,27,28,28,29,29,30,30,31,31,32,32],"right_children":[2,4,6,8,10,-1,12,14,16,18,20,22,-1,24,26,28,30,32,34,36,-1,-1,38,40,42,44,46,48,50,52,54,56,58,-1,-1,-1,-1,-1,-1,-1,-1,-1,-1,-1,-1,-1,-1,-1,-1,-1,-1,-1,-1,-1,-1,-1,-1,-1,-1],"split_conditions":[2E0,5E0,3E0,5E0,1E0,2.0554109E-2,6E0,3E0,1E0,1E0,4E0,4E0,3.7034494E-3,1E0,1E0,1E0,4.1131996E1,5E0,6E0,6E0,6.629691E-2,3.345395E-2,5E0,1E0,1E0,1E0,4E0,4.1176018E1,4E0,3E0,2E0,1E0,6E0,3.208711E-2,6.43815E-2,4.421912E-2,1.4137485E-2,6.0034025E-2,2.5609095E-2,-1.6199032E-2,8.889844E-4,-8.637465E-3,2.2228872E-2,-3.0959614E-3,3.3311613E-2,2.1404872E-2,9.91659E-3,-2.1495933E-5,-1.6068883E-2,9.183727E-3,2.3803497E-2,-2.0633701E-2,-3.1414311E-3,-4.216774E-3,1.1423069E-2,9.532077E-3,3.1315453E-2,2.2050247E-2,4.4216387E-2],"split_indices":[2,1,2,6,12,0,1,1,11,29,6,1,0,12,12,13,7,6,1,1,0,0,1,21,11,23,1,7,1,1,1,13,1,0,0,0,0,0,0,0,0,0,0,0,0,0,0,0,0,0,0,0,0,0,0,0,0,0,0],"split_type":[0,0,0,0,0,0,0,0,0,0,0,0,0,0,0,0,0,0,0,0,0,0,0,0,0,0,0,0,0,0,0,0,0,0,0,0,0,0,0,0,0,0,0,0,0,0,0,0,0,0,0,0,0,0,0,0,0,0,0],"sum_hessian":[5.993E3,5.832E3,1.61E2,5.383E3,4.49E2,6.9E1,9.2E1,3.843E3,1.54E3,4.16E2,3.3E1,8.9E1,3E0,9.51E2,2.892E3,9.75E2,5.65E2,4.04E2,1.2E1,2.7E1,6E0,5.5E1,3.4E1,8.94E2,5.7E1,2.748E3,1.44E2,9.5E2,2.5E1,1.8E1,5.47E2,3.48E2,5.6E1,8E0,4E0,2.4E1,3E0,2.3E1,1.1E1,8.29E2,6.5E1,2.4E1,3.3E1,2.726E3,2.2E1,6.7E1,7.7E1,9.27E2,2.3E1,1.3E1,1.2E1,7E0,1.1E1,3.4E1,5.13E2,3.32E2,1.6E1,5.2E1,4E0],"tree_param":{"num_deleted":"0","num_feature":"31","num_nodes":"59","size_leaf_vector":"1"}},{"base_weights":[-1.2318925E-3,-8.556646E-2,1.5215448E-1,-1.5249647E-1,-2.7078718E-2,1.172076E-1,4.331845E-1,-2.1479839E-1,-1.3763204E-1,-5.0801393E-2,3.396624E-2,7.603488E-2,2.0336923E-1,3.734016E-1,5.091574E-1,-2.2942203E-1,2.9306669E-2,-1.415937E-1,-1.0344327E-2,2.9340854E-1,-5.4090675E-2,5.4203584E-3,8.47568E-2,4.2953897E-2,1.5541859E-1,1.7159706E-1,2.9857036E-1,3.1485856E-1,4.863812E-1,4.152537E-2,2.0058103E-2,-0E0,-2.3966701E-1,-3.3192538E-2,1.9475425E-2,1.1378881E-2,-1.4337587E-1,-1.579697E-2,2.0159898E-2,3.088489E-2,1.3131869E-1,-4.1780274E-2,-1.2547292E-1,-1.24494815E-2,1.2881815E-2,9.984801E-2,-1.9778622E-2,4.6499606E-2,-4.7049537E-2,1.12423316E-1,2.3091811E-1,2.1113467E-1,1.4207329E-1,1.6543795E-1,3.8585523E-1,2.4761775E-1,5.584481E-1,5.6686556E-1,9.929047E-2,-7.2986423E-3,1.580944E-2,-2.095449E-2,-1.3361417E-2,5.198388E-3,-1.7944787E-2,-1.2637362E-2,-8.592409E-3,-5.908798E-4,8.203461E-3,-1.5197829E-3,2.19044E-2,-4.451645E-3,1.6870355E-3,-1.0715457E-2,7.919811E-3,3.1825335E-4,1.1531082E-2,5.7329345E-3,1.8914552E-2,3.036408E-3,2.4011213E-2,1.7170032E-2,4.2727333E-3,1.3762553E-2,2.7411625E-2,1.1984069E-2,2.5688726E-2,-3.6533745E-3,1.3229243E-2,3.2266185E-2,7.862236E-3,2.1585668E-2,4.3970723E-2,2.8695637E-2,1.7354315E-2,9.173423E-3,5.6128606E-2,4.7564592E-2,1.3735282E-2,4.4346776E-2,-2.844895E-2],"categories":[],"categories_nodes":[],"categories_segments":[],"categories_sizes":[],"default_left":[0,0,0,0,0,0,0,0,0,0,0,0,0,0,0,0,0,0,0,0,0,0,0,0,0,0,0,0,0,0,0,0,0,0,0,0,0,0,0,0,0,0,0,0,0,0,0,0,0,0,0,0,0,0,0,0,0,0,0,0,0,0,0,0,0,0,0,0,0,0,0,0,0,0,0,0,0,0,0,0,0,0,0,0,0,0,0,0,0,0,0,0,0,0,0,0,0,0,0,0,0],"id":11,"left_children":[1,3,5,7,9,11,13,15,17,19,21,23,25,27,29,31,33,35,37,39,41,43,45,47,49,51,53,55,57,-1,-1,59,61,63,-1,-1,65,-1,67,-1,69,71,73,-1,75,77,-1,79,-1,81,83,85,87,89,91,93,95,97,99,-1,-1,-1,-1,-1,-1,-1,-1,-1,-1,-1,-1,-1,-1,-1,-1,-1,-1,-1,-1,-1,-1,-1,-1,-1,-1,-1,-1,-1,-1,-1,-1,-1,-1,-1,-1,-1,-1,-1,-1,-1,-1],"loss_changes":[7.771155E1,1.515476E1,2.082299E1,1.6086235E0,3.0025268E0,6.68622E0,7.8896713E-1,1.2582827E0,7.210865E-1,1.6823192E0,8.299926E-1,3.3506393E0,1.7528954E0,6.662636E-1,4.8978806E-2,7.625294E-1,2.967723E-1,7.3778343E-1,2.8427368E-1,1.0781753E-1,1.2785735E0,4.3592203E-1,1.0470425E0,2.0094023E0,1.1634941E0,4.7397518E-1,1.6357231E0,1.3043728E0,1.2479076E0,0E0,0E0,2.8682247E-1,4.180107E-1,3.3070764E-1,0E0,0E0,6.9654083E-1,0E0,1.0104604E-1,0E0,1.8060812E-1,1.1073124E0,4.2744207E-1,0E0,4.029965E-1,7.1835744E-1,0E0,1.9183117E0,0E0,1.4273567E0,7.777767E-1,1.2133646E0,1.1958313E0,9.007535E-1,1.4801102E0,1.20289326E-1,1.0450168E0,2.1524715E-1,2.0800066E0,0E0,0E0,0E0,0E0,0E0,0E0,0E0,0E0,0E0,0E0,0E0,0E0,0E0,0E0,0E0,0E0,0E0,0E0,0E0,0E0,0E0,0E0,0E0,0E0,0E0,0E0,0E0,0E0,0E0,0E0,0E0,0E0,0E0,0E0,0E0,0E0,0E0,0E0,0E0,0E0,0E0,0E0],"parents":[2147483647,0,0,1,1,2,2,3,3,4,4,5,5,6,6,7,7,8,8,9,9,10,10,11,11,12,12,13,13,14,14,15,15,16,16,17,17,18,18,19,19,20,20,21,21,22,22,23,23,24,24,25,25,26,26,27,27,28,28,31,31,32,32,33,33,36,36,38,38,40,40,41,41,42,42,44,44,45,45,47,47,49,49,50,50,51,51,52,52,53,53,54,54,55,55,56,56,57,57,58,58],"right_children":[2,4,6,8,10,12,14,16,18,20,22,24,26,28,30,32,34,36,38,40,42,44,46,48,50,52,54,56,58,-1,-1,60,62,64,-1,-1,66,-1,68,-1,70,72,74,-1,76,78,-1,80,-1,82,84,86,88,90,92,94,96,98,100,-1,-1,-1,-1,-1,-1,-1,-1,-1,-1,-1,-1,-1,-1,-1,-1,-1,-1,-1,-1,-1,-1,-1,-1,-1,-1,-1,-1,-1,-1,-1,-1,-1,-1,-1,-1,-1,-1,-1,-1,-1,-1],"split_conditions":[4.7361984E0,4.375002E0,5.3752785E0,3.8066626E0,5E0,5.0238805E0,5.616771E0,1E0,1E0,4.019943E1,1E0,5E0,5E0,1E0,1E0,3.218876E0,4E0,3.8567455E1,3.9318256E0,4.5325994E0,3E0,4.394449E0,1E0,6E0,1E0,5.1357985E0,5.123964E0,5E0,5.560682E0,4.152537E-2,2.0058103E-2,1E0,5E0,3.713572E0,1.9475425E-2,1.1378881E-2,5E0,-1.579697E-2,4.276666E0,3.088489E-2,4.60567E0,4.6746964E0,1E0,-1.24494815E-2,4.1153538E1,4.6420803E0,-1.9778622E-2,1E0,-4.7049537E-2,4.787492E0,4.882802E0,5.081404E0,5.1532917E0,5.049856E0,1E0,5.4161005E0,5.4380794E0,1E0,3E0,-7.2986423E-3,1.580944E-2,-2.095449E-2,-1.3361417E-2,5.198388E-3,-1.7944787E-2,-1.2637362E-2,-8.592409E-3,-5.908798E-4,8.203461E-3,-1.5197829E-3,2.19044E-2,-4.451645E-3,1.6870355E-3,-1.0715457E-2,7.919811E-3,3.1825335E-4,1.1531082E-2,5.7329345E-3,1.8914552E-2,3.036408E-3,2.4011213E-2,1.7170032E-2,4.2727333E-3,1.3762553E-2,2.7411625E-2,1.1984069E-2,2.5688726E-2,-3.6533745E-3,1.3229243E-2,3.2266185E-2,7.862236E-3,2.1585668E-2,4.3970723E-2,2.8695637E-2,1.7354315E-2,9.173423E-3,5.6128606E-2,4.7564592E-2,1.3735282E-2,4.4346776E-2,-2.844895E-2],"split_indices":[0,0,0,0,6,0,0,3,21,7,11,6,6,11,13,0,3,7,0,0,6,0,3,3,11,0,0,6,0,0,0,13,6,0,0,0,6,0,0,0,0,0,13,0,7,0,0,13,0,0,0,0,0,0,11,0,0,3,6,0,0,0,0,0,0,0,0,0,0,0,0,0,0,0,0,0,0,0,0,0,0,0,0,0,0,0,0,0,0,0,0,0,0,0,0,0,0,0,0,0,0],"split_type":[0,0,0,0,0,0,0,0,0,0,0,0,0,0,0,0,0,0,0,0,0,0,0,0,0,0,0,0,0,0,0,0,0,0,0,0,0,0,0,0,0,0,0,0,0,0,0,0,0,0,0,0,0,0,0,0,0,0,0,0,0,0,0,0,0,0,0,0,0,0,0,0,0,0,0,0,0,0,0,0,0,0,0,0,0,0,0,0,0,0,0,0,0,0,0,0,0,0,0,0,0],"sum_hessian":[6.006E3,3.876E3,2.13E3,1.806E3,2.07E3,1.896E3,2.34E2,3.44E2,1.462E3,1.492E3,5.78E2,1.285E3,6.11E2,1.35E2,9.9E1,3.25E2,1.9E1,1.417E3,4.5E1,1.3E1,1.479E3,3.72E2,2.06E2,9.09E2,3.76E2,4.61E2,1.5E2,9.2E1,4.3E1,9.4E1,5E0,1.4E1,3.11E2,1.5E1,4E0,8E0,1.409E3,6E0,3.9E1,7E0,6E0,1.264E3,2.15E2,1.5E1,3.57E2,1.98E2,8E0,9.05E2,4E0,2.42E2,1.34E2,1.93E2,2.68E2,6.1E1,8.9E1,7.4E1,1.8E1,3.5E1,8E0,1E1,4E0,2.35E2,7.6E1,1E1,5E0,9.98E2,4.11E2,2.9E1,1E1,3E0,3E0,1.037E3,2.27E2,2.08E2,7E0,3.36E2,2.1E1,1.66E2,3.2E1,8.77E2,2.8E1,8.7E1,1.55E2,9E1,4.4E1,1.26E2,6.7E1,2.9E1,2.39E2,1.2E1,4.9E1,5.4E1,3.5E1,1.3E1,6.1E1,5E0,1.3E1,3.2E1,3E0,4E0,4E0],"tree_param":{"num_deleted":"0","num_feature":"31","num_nodes":"101","size_leaf_vector":"1"}},{"base_weights":[2.0614002E-4,-7.708466E-2,1.4192851E-1,-1.3767639E-1,-2.7885783E-2,9.1009244E-2,3.262352E-1,-1.4420977E-1,4.1440293E-2,-3.4098417E-2,2.4474438E-1,8.006514E-2,4.1048697E-1,2.902413E-1,6.150201E-1,-1.8265752E-1,-1.2461569E-1,-2.1502838E-1,1.2999472E-1,2.0277187E-1,-3.833958E-2,-1.3149939E-2,2.8794548E-1,7.277354E-2,3.2089037E-1,1.9307917E-1,3.7147447E-2,2.564224E-1,4.2445675E-1,5.119002E-1,6.518719E-2,-1.932345E-1,-4.321156E-2,1.5370443E-2,-1.2714125E-1,-0E0,-2.2828897E-2,3.0591909E-2,6.585032E-2,2.4706696E-1,-1.595435E-2,-3.5621874E-2,-2.6573196E-1,4.208576E-2,2.3387097E-1,6.4046375E-2,2.27886E-1,3.4300846E-1,3.7197326E-3,2.6220116E-1,-2.3964688E-4,2.2097923E-1,3.3934623E-1,3.6728762E-2,2.5020977E-2,4.4477668E-2,8.597434E-3,-3.3251923E-3,-1.5792117E-2,1.9897167E-3,-1.12740975E-2,-9.584354E-3,-1.777932E-2,-1.8377125E-3,7.41911E-3,1.5237424E-2,2.7120356E-2,-3.1897651E-3,5.0873873E-3,-9.384617E-3,-2.3468295E-2,7.531623E-3,2.3271408E-2,3.5546815E-3,1.033998E-2,1.5705865E-2,5.287995E-2,1.9024143E-2,3.4246266E-2,7.5380784E-3,2.4515517E-2,1.4985945E-2,3.307745E-2,7.0645136E-4,2.9426612E-2],"categories":[],"categories_nodes":[],"categories_segments":[],"categories_sizes":[],"default_left":[0,0,0,0,0,0,0,0,0,0,0,0,0,0,0,0,0,0,0,0,0,0,0,0,0,0,0,0,0,0,0,0,0,0,0,0,0,0,0,0,0,0,0,0,0,0,0,0,0,0,0,0,0,0,0,0,0,0,0,0,0,0,0,0,0,0,0,0,0,0,0,0,0,0,0,0,0,0,0,0,0,0,0,0,0],"id":12,"left_children":[1,3,5,7,9,11,13,15,17,19,21,23,25,27,29,31,33,35,37,39,41,-1,43,45,47,49,-1,51,53,55,-1,57,59,-1,61,-1,-1,-1,63,65,-1,67,69,-1,71,73,75,77,-1,79,-1,81,83,-1,-1,-1,-1,-1,-1,-1,-1,-1,-1,-1,-1,-1,-1,-1,-1,-1,-1,-1,-1,-1,-1,-1,-1,-1,-1,-1,-1,-1,-1,-1,-1],"loss_changes":[6.635385E1,1.1662319E1,1.999321E1,2.0700226E0,3.6542532E0,5.781539E0,4.533226E0,1.2226791E0,1.4275582E0,2.1190858E0,9.080579E-1,2.7872715E0,4.8858356E-1,1.6976852E0,4.804802E-1,8.0575943E-1,9.194851E-1,2.3737723E-1,6.909388E-1,7.132112E-1,1.2470446E0,0E0,3.6754227E-1,2.0909834E0,2.3034716E-1,2.0289597E-1,0E0,8.476925E-1,9.273243E-2,5.1555634E-1,0E0,3.0096245E-1,2.9452428E-1,0E0,7.1993256E-1,0E0,0E0,0E0,1.0225032E-1,5.9405327E-2,0E0,8.684013E-1,2.2914886E-2,0E0,2.3687077E-1,1.888731E0,9.19127E-1,2.1646118E-1,0E0,5.3749084E-3,0E0,1.3978004E0,8.7236214E-1,0E0,0E0,0E0,0E0,0E0,0E0,0E0,0E0,0E0,0E0,0E0,0E0,0E0,0E0,0E0,0E0,0E0,0E0,0E0,0E0,0E0,0E0,0E0,0E0,0E0,0E0,0E0,0E0,0E0,0E0,0E0,0E0],"parents":[2147483647,0,0,1,1,2,2,3,3,4,4,5,5,6,6,7,7,8,8,9,9,10,10,11,11,12,12,13,13,14,14,15,15,16,16,17,17,18,18,19,19,20,20,22,22,23,23,24,24,25,25,27,27,28,28,29,29,31,31,32,32,34,34,38,38,39,39,41,41,42,42,44,44,45,45,46,46,47,47,49,49,51,51,52,52],"right_children":[2,4,6,8,10,12,14,16,18,20,22,24,26,28,30,32,34,36,38,40,42,-1,44,46,48,50,-1,52,54,56,-1,58,60,-1,62,-1,-1,-1,64,66,-1,68,70,-1,72,74,76,78,-1,80,-1,82,84,-1,-1,-1,-1,-1,-1,-1,-1,-1,-1,-1,-1,-1,-1,-1,-1,-1,-1,-1,-1,-1,-1,-1,-1,-1,-1,-1,-1,-1,-1,-1,-1],"split_conditions":[4.7361984E0,4.356709E0,5.198497E0,1E0,2E0,2E0,1E0,3.9702919E0,3.871201E0,-8.660143E0,4.394449E0,1E0,4.7957907E0,5.616771E0,5.655992E0,1E0,4.019943E1,3.5322256E0,3.912023E0,4.120346E1,-8.576775E0,-1.3149939E-2,4.449685E0,1E0,5.1532917E0,4.7706847E0,3.7147447E-2,1E0,5.90277E0,5.616771E0,6.518719E-2,3.218876E0,3.7612002E0,1.5370443E-2,4.3307333E0,-0E0,-2.2828897E-2,3.0591909E-2,3.9912038E0,3.8567455E1,-1.595435E-2,1E0,-8.553641E0,4.208576E-2,4.6051702E0,5.0238805E0,5.17615E0,4.890349E0,3.7197326E-3,4.744932E0,-2.3964688E-4,2E0,5.214936E0,3.6728762E-2,2.5020977E-2,4.4477668E-2,8.597434E-3,-3.3251923E-3,-1.5792117E-2,1.9897167E-3,-1.12740975E-2,-9.584354E-3,-1.777932E-2,-1.8377125E-3,7.41911E-3,1.5237424E-2,2.7120356E-2,-3.1897651E-3,5.0873873E-3,-9.384617E-3,-2.3468295E-2,7.531623E-3,2.3271408E-2,3.5546815E-3,1.033998E-2,1.5705865E-2,5.287995E-2,1.9024143E-2,3.4246266E-2,7.5380784E-3,2.4515517E-2,1.4985945E-2,3.307745E-2,7.0645136E-4,2.9426612E-2],"split_indices":[0,0,0,12,2,2,12,0,0,8,0,13,0,0,0,3,7,0,0,7,8,0,0,12,0,0,0,11,0,0,0,0,0,0,0,0,0,0,0,7,0,13,8,0,0,0,0,0,0,0,0,2,0,0,0,0,0,0,0,0,0,0,0,0,0,0,0,0,0,0,0,0,0,0,0,0,0,0,0,0,0,0,0,0,0],"split_type":[0,0,0,0,0,0,0,0,0,0,0,0,0,0,0,0,0,0,0,0,0,0,0,0,0,0,0,0,0,0,0,0,0,0,0,0,0,0,0,0,0,0,0,0,0,0,0,0,0,0,0,0,0,0,0,0,0,0,0,0,0,0,0,0,0,0,0,0,0,0,0,0,0,0,0,0,0,0,0,0,0,0,0,0,0],"sum_hessian":[6.055E3,3.918E3,2.137E3,1.754E3,2.164E3,1.676E3,4.61E2,1.693E3,6.1E1,2.117E3,4.7E1,1.622E3,5.4E1,4.12E2,4.9E1,5.67E2,1.126E3,1.5E1,4.6E1,3.6E1,2.081E3,4E0,4.3E1,1.576E3,4.6E1,1.2E1,4.2E1,3.32E2,8E1,3.5E1,1.4E1,5.26E2,4.1E1,8E0,1.118E3,4E0,1.1E1,8E0,3.8E1,3.3E1,3E0,2.058E3,2.3E1,6E0,3.7E1,1.494E3,8.2E1,4.2E1,4E0,9E0,3E0,2.36E2,9.6E1,5.8E1,2.2E1,3.1E1,4E0,1.5E1,5.11E2,2.4E1,1.7E1,1.041E3,7.7E1,8E0,3E1,2.3E1,1E1,1.975E3,8.3E1,5E0,1.8E1,1.2E1,2.5E1,1.151E3,3.43E2,7.8E1,4E0,2.1E1,2.1E1,3E0,6E0,2.03E2,3.3E1,8E0,8.8E1],"tree_param":{"num_deleted":"0","num_feature":"31","num_nodes":"85","size_leaf_vector":"1"}},{"base_weights":[3.4214559E-3,-4.2247392E-2,2.0782113E-1,-1.2295617E-1,4.965032E-3,1.3649844E-1,3.089686E-1,-1.3973488E-1,-7.782217E-2,1.55278E-1,-2.1162737E-2,2.8380245E-1,8.32218E-2,2.7742144E-1,5.692564E-1,-1.7491771E-1,-9.547024E-2,-1.12109736E-1,-9.004947E-3,9.262337E-2,2.4672215E-1,-5.1687695E-2,2.9298402E-2,2.1818478E-1,4.1760394E-1,2.8060168E-1,7.290966E-2,2.6803672E-1,6.110364E-2,1.28433285E-2,6.004909E-1,-2.4880528E-1,-1.5252839E-1,1.6880737E-1,-1.0375116E-1,1.4279047E-3,-1.6009314E-1,1.0638452E-1,-2.966975E-2,2.5430419E-2,1.6037214E-1,-9.3321845E-2,2.610201E-1,-6.744938E-2,-2.790677E-3,-3.3257776E-3,1.0598341E-1,1.7002518E-1,4.277779E-1,4.6070856E-1,-6.846701E-3,4.3806437E-2,3.973054E-1,6.811769E-2,3.7875067E-2,2.4635741E-1,4.1416553E-1,4.9397016E-1,8.3504874E-1,-2.5697894E-2,-1.4056578E-2,-6.2007676E-3,-1.4178885E-2,2.3027854E-2,4.623617E-3,1.0840599E-2,-8.916996E-3,-2.1369826E-2,6.633961E-3,-1.7137619E-2,-6.7536496E-3,-1.5850749E-2,2.3704784E-2,-1.2740859E-2,5.9388898E-5,2.8873596E-3,-2.5900122E-2,1.618296E-2,-1.8004914E-3,9.174336E-3,-2.0884663E-2,1.5723415E-2,2.6122853E-2,-5.174598E-3,-2.4044627E-2,1.7091436E-2,-9.0390834E-4,-8.270624E-4,2.6830811E-2,1.7163133E-2,3.6733823E-3,7.6269074E-3,1.9258205E-2,1.8849581E-2,4.3514255E-2,2.8413936E-2,4.633058E-2,-2.7172547E-3,8.401608E-3,3.5751946E-2,9.935768E-3,1.4753674E-2,4.445696E-3,1.6292268E-2,2.7472334E-2,2.3280937E-2,3.7697632E-2,4.3305006E-2,8.047202E-3,7.87267E-2,3.276662E-2],"categories":[],"categories_nodes":[],"categories_segments":[],"categories_sizes":[],"default_left":[0,0,0,0,0,0,0,0,0,0,0,0,0,0,0,0,0,0,0,0,0,0,0,0,0,0,0,0,0,0,0,0,0,0,0,0,0,0,0,0,0,0,0,0,0,0,0,0,0,0,0,0,0,0,0,0,0,0,0,0,0,0,0,0,0,0,0,0,0,0,0,0,0,0,0,0,0,0,0,0,0,0,0,0,0,0,0,0,0,0,0,0,0,0,0,0,0,0,0,0,0,0,0,0,0,0,0,0,0,0,0],"id":13,"left_children":[1,3,5,7,9,11,13,15,17,19,21,23,25,27,29,31,33,35,37,39,41,43,45,47,49,51,53,55,-1,-1,57,59,61,63,65,67,69,71,73,75,77,79,81,83,85,87,89,91,93,95,-1,97,99,101,-1,103,105,107,109,-1,-1,-1,-1,-1,-1,-1,-1,-1,-1,-1,-1,-1,-1,-1,-1,-1,-1,-1,-1,-1,-1,-1,-1,-1,-1,-1,-1,-1,-1,-1,-1,-1,-1,-1,-1,-1,-1,-1,-1,-1,-1,-1,-1,-1,-1,-1,-1,-1,-1,-1,-1],"loss_changes":[5.652826E1,1.886655E1,7.892086E0,1.3509407E0,1.2277862E1,5.0486374E0,3.5017776E0,2.0259876E0,1.1643069E0,2.5959244E0,4.1010156E0,1.355423E0,9.2118645E-1,1.5589619E0,4.402609E-1,1.1427841E0,1.3065772E0,1.8248048E0,3.9608106E-1,1.2383118E0,9.503107E-1,1.271378E0,2.5174074E0,1.0585694E0,1.2698755E0,5.7408655E-1,7.926438E-1,1.1086082E0,0E0,0E0,5.539608E-1,7.8849125E-1,1.0173054E0,1.8666899E-1,1.0735712E0,2.1704426E0,9.105005E-1,1.5144225E0,5.834936E-1,5.078379E-1,1.072679E0,3.236907E-1,6.438818E-1,7.5220776E-1,7.3165214E-1,1.6407363E0,1.92026E0,4.6095014E-1,2.625885E-1,3.3826256E-1,0E0,5.351898E-2,9.0554714E-2,6.282282E-1,0E0,1.3424358E0,1.3797188E-1,4.959364E-1,2.1848106E-1,0E0,0E0,0E0,0E0,0E0,0E0,0E0,0E0,0E0,0E0,0E0,0E0,0E0,0E0,0E0,0E0,0E0,0E0,0E0,0E0,0E0,0E0,0E0,0E0,0E0,0E0,0E0,0E0,0E0,0E0,0E0,0E0,0E0,0E0,0E0,0E0,0E0,0E0,0E0,0E0,0E0,0E0,0E0,0E0,0E0,0E0,0E0,0E0,0E0,0E0,0E0,0E0],"parents":[2147483647,0,0,1,1,2,2,3,3,4,4,5,5,6,6,7,7,8,8,9,9,10,10,11,11,12,12,13,13,14,14,15,15,16,16,17,17,18,18,19,19,20,20,21,21,22,22,23,23,24,24,25,25,26,26,27,27,30,30,31,31,32,32,33,33,34,34,35,35,36,36,37,37,38,38,39,39,40,40,41,41,42,42,43,43,44,44,45,45,46,46,47,47,48,48,49,49,51,51,52,52,53,53,55,55,56,56,57,57,58,58],"right_children":[2,4,6,8,10,12,14,16,18,20,22,24,26,28,30,32,34,36,38,40,42,44,46,48,50,52,54,56,-1,-1,58,60,62,64,66,68,70,72,74,76,78,80,82,84,86,88,90,92,94,96,-1,98,100,102,-1,104,106,108,110,-1,-1,-1,-1,-1,-1,-1,-1,-1,-1,-1,-1,-1,-1,-1,-1,-1,-1,-1,-1,-1,-1,-1,-1,-1,-1,-1,-1,-1,-1,-1,-1,-1,-1,-1,-1,-1,-1,-1,-1,-1,-1,-1,-1,-1,-1,-1,-1,-1,-1,-1,-1],"split_conditions":[4.94876E0,4.375002E0,5.198497E0,5E0,3E0,4E0,1E0,3E0,1E0,4.60567E0,4.727388E0,4E0,-8.618639E0,1E0,-8.641877E0,3.713572E0,3.5695326E0,2E0,3.713572E0,4E0,2E0,5E0,5E0,2E0,1E0,5.0106354E0,4E0,2E0,6.110364E-2,1.28433285E-2,5.655992E0,2E0,2E0,3.4011974E0,-8.610438E0,3.6888795E0,4.158883E0,2E0,3.9569964E0,3E0,1E0,4.6746964E0,4.7344427E0,-8.527283E0,-8.660143E0,3E0,4E0,5.030438E0,5.043425E0,5.123964E0,-6.846701E-3,4.9698133E0,5.130786E0,4.9698133E0,3.7875067E-2,1E0,4E0,5.616771E0,3E0,-2.5697894E-2,-1.4056578E-2,-6.2007676E-3,-1.4178885E-2,2.3027854E-2,4.623617E-3,1.0840599E-2,-8.916996E-3,-2.1369826E-2,6.633961E-3,-1.7137619E-2,-6.7536496E-3,-1.5850749E-2,2.3704784E-2,-1.2740859E-2,5.9388898E-5,2.8873596E-3,-2.5900122E-2,1.618296E-2,-1.8004914E-3,9.174336E-3,-2.0884663E-2,1.5723415E-2,2.6122853E-2,-5.174598E-3,-2.4044627E-2,1.7091436E-2,-9.0390834E-4,-8.270624E-4,2.6830811E-2,1.7163133E-2,3.6733823E-3,7.6269074E-3,1.9258205E-2,1.8849581E-2,4.3514255E-2,2.8413936E-2,4.633058E-2,-2.7172547E-3,8.401608E-3,3.5751946E-2,9.935768E-3,1.4753674E-2,4.445696E-3,1.6292268E-2,2.7472334E-2,2.3280937E-2,3.7697632E-2,4.3305006E-2,8.047202E-3,7.87267E-2,3.276662E-2],"split_indices":[0,0,0,6,1,1,12,1,11,0,0,6,8,23,8,0,0,1,0,6,1,6,6,2,12,0,2,2,0,0,0,1,1,0,8,0,0,1,0,6,23,0,0,8,8,2,1,0,0,0,0,0,0,0,0,11,1,0,6,0,0,0,0,0,0,0,0,0,0,0,0,0,0,0,0,0,0,0,0,0,0,0,0,0,0,0,0,0,0,0,0,0,0,0,0,0,0,0,0,0,0,0,0,0,0,0,0,0,0,0,0],"split_type":[0,0,0,0,0,0,0,0,0,0,0,0,0,0,0,0,0,0,0,0,0,0,0,0,0,0,0,0,0,0,0,0,0,0,0,0,0,0,0,0,0,0,0,0,0,0,0,0,0,0,0,0,0,0,0,0,0,0,0,0,0,0,0,0,0,0,0,0,0,0,0,0,0,0,0,0,0,0,0,0,0,0,0,0,0,0,0,0,0,0,0,0,0,0,0,0,0,0,0,0,0,0,0,0,0,0,0,0,0,0,0],"sum_hessian":[6.052E3,4.947E3,1.105E3,1.826E3,3.121E3,6.5E2,4.55E2,1.328E3,4.98E2,4.62E2,2.659E3,1.71E2,4.79E2,4.08E2,4.7E1,7.37E2,5.91E2,3.31E2,1.67E2,2.76E2,1.86E2,1.658E3,1.001E3,1.17E2,5.4E1,2.2E1,4.57E2,4.02E2,6E0,4E0,4.3E1,1.68E2,5.69E2,1.7E1,5.74E2,9.8E1,2.33E2,2.4E1,1.43E2,1.4E2,1.36E2,7E0,1.79E2,1.252E3,4.06E2,7.02E2,2.99E2,9.7E1,2E1,5E1,4E0,8E0,1.4E1,4.53E2,4E0,3.53E2,4.9E1,3.2E1,1.1E1,8.2E1,8.6E1,1.43E2,4.26E2,7E0,1E1,1.7E1,5.57E2,2.2E1,7.6E1,1.34E2,9.9E1,9E0,1.5E1,2.7E1,1.16E2,1.37E2,3E0,1.11E2,2.5E1,3E0,4E0,9.3E1,8.6E1,1.239E3,1.3E1,1.4E1,3.92E2,6.89E2,1.3E1,1.05E2,1.94E2,4.9E1,4.8E1,9E0,1.1E1,2.9E1,2.1E1,3E0,5E0,1.1E1,3E0,4.2E1,4.11E2,2.48E2,1.05E2,1.8E1,3.1E1,2.8E1,4E0,7E0,4E0],"tree_param":{"num_deleted":"0","num_feature":"31","num_nodes":"111","size_leaf_vector":"1"}},{"base_weights":[2.0592625E-3,-4.8136026E-2,1.7241727E-1,-1.14026956E-1,-7.5213873E-4,1.2995657E-1,3.7119347E-1,-1.4583209E-1,-8.0847904E-2,-7.5014383E-3,1.2473118E-1,8.98104E-2,1.9055358E-1,3.2877815E-1,5.30373E-1,-1.7327559E-1,-6.0494214E-2,8.59658E-2,-8.5477345E-2,-4.1348212E-3,-2.0673616E-2,1.4265981E-1,-8.86513E-3,8.558128E-2,4.3336414E-2,4.4016074E-2,1.7678384E-1,3.0476356E-1,4.7588682E-1,5.026339E-2,3.257909E-2,-1.765565E-1,1.1444686E-2,-8.142863E-2,2.0364334E-1,1.13060586E-1,-0E0,-8.9394204E-2,4.6722744E-2,-2.1650212E-2,3.897971E-2,8.4223434E-2,2.6953608E-1,9.089456E-2,-1.696714E-2,1.8918829E-1,-7.437081E-2,2.9453918E-1,5.063977E-2,3.3370838E-1,6.4578366E-1,-1.6678464E-2,-1.3199859E-2,1.2980009E-2,-7.5002406E-3,2.232861E-2,-0E0,1.7496902E-3,1.4127276E-2,-7.420023E-3,3.2358598E-3,8.193758E-4,5.484616E-3,6.92902E-3,-2.126808E-3,9.734332E-3,1.0684744E-3,2.3399208E-2,3.3007597E-3,1.7253658E-2,2.9513277E-2,7.868821E-3,-6.028304E-3,1.4370869E-2,2.8553072E-2,-1.8887375E-2,2.849493E-3,2.3886373E-2,2.338703E-3,4.1228108E-2,-1.1918112E-2,2.9855393E-2,7.490979E-2],"categories":[],"categories_nodes":[],"categories_segments":[],"categories_sizes":[],"default_left":[0,0,0,0,0,0,0,0,0,0,0,0,0,0,0,0,0,0,0,0,0,0,0,0,0,0,0,0,0,0,0,0,0,0,0,0,0,0,0,0,0,0,0,0,0,0,0,0,0,0,0,0,0,0,0,0,0,0,0,0,0,0,0,0,0,0,0,0,0,0,0,0,0,0,0,0,0,0,0,0,0,0,0],"id":14,"left_children":[1,3,5,7,9,11,13,15,17,19,21,23,25,27,29,31,33,35,37,39,-1,41,-1,43,-1,-1,45,47,49,-1,-1,51,-1,53,55,57,-1,59,61,63,65,67,69,71,-1,73,75,77,-1,79,81,-1,-1,-1,-1,-1,-1,-1,-1,-1,-1,-1,-1,-1,-1,-1,-1,-1,-1,-1,-1,-1,-1,-1,-1,-1,-1,-1,-1,-1,-1,-1,-1],"loss_changes":[5.207169E1,1.4668873E1,1.1599731E1,2.0401917E0,2.307245E0,2.7379036E0,1.3803635E0,2.3104534E0,7.5329685E-1,2.1681745E0,6.059911E-1,1.2114949E0,2.0783558E0,4.657879E-1,2.3138618E-1,8.132324E-1,1.3646343E0,6.351085E-2,4.9570227E-1,1.9368716E0,0E0,9.0576744E-1,0E0,1.0921407E0,0E0,0E0,1.3932276E0,2.946787E-1,2.9043913E-1,0E0,0E0,2.0462418E-1,0E0,6.960918E-1,2.6624292E-1,9.215757E-2,0E0,4.0770435E-1,1.2924712E-2,9.7240365E-1,1.5529847E0,7.6882094E-1,7.610226E-2,8.4749556E-1,0E0,5.53545E-1,4.019973E-1,1.3858128E-1,0E0,1.5162333E0,3.117156E-1,0E0,0E0,0E0,0E0,0E0,0E0,0E0,0E0,0E0,0E0,0E0,0E0,0E0,0E0,0E0,0E0,0E0,0E0,0E0,0E0,0E0,0E0,0E0,0E0,0E0,0E0,0E0,0E0,0E0,0E0,0E0,0E0],"parents":[2147483647,0,0,1,1,2,2,3,3,4,4,5,5,6,6,7,7,8,8,9,9,10,10,11,11,12,12,13,13,14,14,15,15,16,16,17,17,18,18,19,19,21,21,23,23,26,26,27,27,28,28,31,31,33,33,34,34,35,35,37,37,38,38,39,39,40,40,41,41,42,42,43,43,45,45,46,46,47,47,49,49,50,50],"right_children":[2,4,6,8,10,12,14,16,18,20,22,24,26,28,30,32,34,36,38,40,-1,42,-1,44,-1,-1,46,48,50,-1,-1,52,-1,54,56,58,-1,60,62,64,66,68,70,72,-1,74,76,78,-1,80,82,-1,-1,-1,-1,-1,-1,-1,-1,-1,-1,-1,-1,-1,-1,-1,-1,-1,-1,-1,-1,-1,-1,-1,-1,-1,-1,-1,-1,-1,-1,-1,-1],"split_conditions":[4.882802E0,4.394449E0,5.3752785E0,4.1271343E0,1E0,5.081404E0,5.7430034E0,1E0,-8.622289E0,-8.576775E0,4.8520303E0,5E0,-8.618639E0,1E0,5.90277E0,4E0,1E0,4.3307333E0,1E0,4.7361984E0,-2.0673616E-2,4.7132173E0,-8.86513E-3,-8.576775E0,4.3336414E-2,4.4016074E-2,1E0,1E0,1E0,5.026339E-2,3.257909E-2,3.713572E0,1.1444686E-2,3.3672957E0,4.01458E0,4.2341065E0,-0E0,1E0,4.26268E0,-8.621587E0,4.7552266E0,4.4566703E0,4.8072944E0,5.075174E0,-1.696714E-2,1E0,3E0,4E0,5.063977E-2,5.616771E0,5.560682E0,-1.6678464E-2,-1.3199859E-2,1.2980009E-2,-7.5002406E-3,2.232861E-2,-0E0,1.7496902E-3,1.4127276E-2,-7.420023E-3,3.2358598E-3,8.193758E-4,5.484616E-3,6.92902E-3,-2.126808E-3,9.734332E-3,1.0684744E-3,2.3399208E-2,3.3007597E-3,1.7253658E-2,2.9513277E-2,7.868821E-3,-6.028304E-3,1.4370869E-2,2.8553072E-2,-1.8887375E-2,2.849493E-3,2.3886373E-2,2.338703E-3,4.1228108E-2,-1.1918112E-2,2.9855393E-2,7.490979E-2],"split_indices":[0,0,0,0,12,0,0,11,8,8,0,3,8,12,0,3,12,0,21,0,0,0,0,8,0,0,3,23,11,0,0,0,0,0,0,0,0,12,0,8,0,0,0,0,0,13,3,3,0,0,0,0,0,0,0,0,0,0,0,0,0,0,0,0,0,0,0,0,0,0,0,0,0,0,0,0,0,0,0,0,0,0,0],"split_type":[0,0,0,0,0,0,0,0,0,0,0,0,0,0,0,0,0,0,0,0,0,0,0,0,0,0,0,0,0,0,0,0,0,0,0,0,0,0,0,0,0,0,0,0,0,0,0,0,0,0,0,0,0,0,0,0,0,0,0,0,0,0,0,0,0,0,0,0,0,0,0,0,0,0,0,0,0,0,0,0,0,0,0],"sum_hessian":[6.086E3,4.701E3,1.385E3,1.965E3,2.736E3,1.143E3,2.42E2,1E3,9.65E2,2.598E3,1.38E2,6.9E2,4.53E2,1.94E2,4.8E1,7.55E2,2.45E2,2.5E1,9.4E2,2.565E3,3.3E1,1.29E2,9E0,6.85E2,5E0,1.5E1,4.38E2,1.7E2,2.4E1,2.4E1,2.4E1,7.48E2,7E0,2.28E2,1.7E1,1.9E1,6E0,9.14E2,2.6E1,1.826E3,7.39E2,9E1,3.9E1,6.74E2,1.1E1,4.18E2,2E1,1.67E2,3E0,1.5E1,9E0,1.92E2,5.56E2,1E1,2.18E2,1.2E1,5E0,9E0,1E1,8.92E2,2.2E1,1.2E1,1.4E1,7.8E1,1.748E3,1.73E2,5.66E2,1.4E1,7.6E1,2.8E1,1.1E1,6.46E2,2.8E1,3.98E2,2E1,8E0,1.2E1,1.64E2,3E0,1.1E1,4E0,6E0,3E0],"tree_param":{"num_deleted":"0","num_feature":"31","num_nodes":"83","size_leaf_vector":"1"}},{"base_weights":[5.2540726E-3,-3.4321472E-2,1.8769233E-1,-9.967561E-2,1.3379159E-2,1.442345E-1,3.4417427E-1,-1.4193924E-1,-8.102593E-2,1.358638E-1,-6.567838E-3,2.437154E-1,1.06733896E-1,3.083415E-1,5.6333697E-1,-1.5693277E-1,-1.50078535E-2,1.0822088E-2,-9.2326395E-2,7.882322E-2,1.9826768E-1,-3.0614791E-2,5.9382197E-2,1.5119453E-1,4.1960588E-1,9.831147E-2,3.3512387E-1,3.2931057E-1,1.172623E-1,3.826712E-1,7.482403E-1,-2.0456034E-1,-1.361678E-1,2.4249062E-1,-9.287763E-2,-4.5272335E-2,9.635713E-2,-9.6258074E-2,9.203273E-2,9.252293E-2,-1.3031244E-1,2.1598104E-1,-2.9141746E-2,-4.5070924E-2,2.301672E-2,1.871421E-2,1.3270342E-1,1.2804924E-1,4.784434E-2,4.566711E-1,-7.294164E-3,2.5816494E-1,8.917358E-2,3.2260776E-2,-2.421482E-3,3.682483E-1,1.8034878E-1,1.8448037E-1,-1.0254019E-2,5.6990575E-2,2.625702E-1,6.87791E-2,2.8447622E-2,-2.0457491E-2,-8.041667E-3,-1.120341E-2,9.996292E-3,6.415729E-3,3.4032956E-2,-4.723983E-2,-4.005334E-3,-1.395581E-3,-3.0584175E-2,2.5639813E-3,1.2523035E-2,3.0826686E-3,-8.115633E-3,-2.7451585E-3,1.0762229E-2,2.535019E-3,1.2163298E-2,-4.801077E-3,-1.4852719E-2,1.3230655E-2,2.4424769E-2,-4.0491805E-3,6.7562554E-3,1.0305456E-3,2.4160696E-2,1.5543296E-2,9.955715E-4,1.965124E-2,5.1424075E-3,3.3938374E-2,8.928902E-3,2.8621338E-2,4.228974E-2,9.300545E-3,-1.2321727E-2,7.967464E-3,3.3120144E-2,5.3972653E-3,1.1880867E-2,2.094315E-2,3.8050834E-2,-6.6972664E-3,3.068117E-2,1.1074593E-4,4.2702008E-2,3.894493E-3,2.8371729E-2],"categories":[],"categories_nodes":[],"categories_segments":[],"categories_sizes":[],"default_left":[0,0,0,0,0,0,0,0,0,0,0,0,0,0,0,0,0,0,0,0,0,0,0,0,0,0,0,0,0,0,0,0,0,0,0,0,0,0,0,0,0,0,0,0,0,0,0,0,0,0,0,0,0,0,0,0,0,0,0,0,0,0,0,0,0,0,0,0,0,0,0,0,0,0,0,0,0,0,0,0,0,0,0,0,0,0,0,0,0,0,0,0,0,0,0,0,0,0,0,0,0,0,0,0,0,0,0,0,0,0,0],"id":15,"left_children":[1,3,5,7,9,11,13,15,17,19,21,23,25,27,29,31,33,35,37,39,41,43,45,47,49,51,53,55,57,59,61,63,65,67,69,71,73,75,77,79,81,83,-1,85,87,89,91,93,-1,95,97,99,101,-1,-1,103,105,107,-1,-1,109,-1,-1,-1,-1,-1,-1,-1,-1,-1,-1,-1,-1,-1,-1,-1,-1,-1,-1,-1,-1,-1,-1,-1,-1,-1,-1,-1,-1,-1,-1,-1,-1,-1,-1,-1,-1,-1,-1,-1,-1,-1,-1,-1,-1,-1,-1,-1,-1,-1,-1],"loss_changes":[4.3457863E1,1.5422557E1,7.198311E0,1.6111832E0,6.996489E0,3.080101E0,1.5610752E0,1.1908531E0,1.5162172E0,1.3840437E0,3.897077E0,3.60612E0,1.1047993E0,7.260914E-1,6.361551E-1,4.998169E-1,1.3911035E0,7.72359E-1,9.472256E-1,6.156783E-1,1.9570932E0,1.4011165E0,1.9384525E0,1.4228995E0,1.2824736E0,8.099141E-1,5.7232785E-1,9.285679E-1,3.9222875E-1,4.2822957E-1,1.8565798E-1,8.381705E-1,4.2372894E-1,3.9031512E-1,1.0567733E0,8.537136E-1,2.2380865E-1,8.9679813E-1,1.5960443E-1,7.0097077E-1,1.487121E-2,7.386074E-1,0E0,1.0219712E0,1.044747E0,4.4364423E-1,1.7537332E0,6.098826E-1,0E0,2.346077E-1,1.4858076E-1,6.734593E-1,6.9486E-1,0E0,0E0,1.4251308E0,2.2080426E0,1.0969257E0,0E0,0E0,2.3781466E-1,0E0,0E0,0E0,0E0,0E0,0E0,0E0,0E0,0E0,0E0,0E0,0E0,0E0,0E0,0E0,0E0,0E0,0E0,0E0,0E0,0E0,0E0,0E0,0E0,0E0,0E0,0E0,0E0,0E0,0E0,0E0,0E0,0E0,0E0,0E0,0E0,0E0,0E0,0E0,0E0,0E0,0E0,0E0,0E0,0E0,0E0,0E0,0E0,0E0,0E0],"parents":[2147483647,0,0,1,1,2,2,3,3,4,4,5,5,6,6,7,7,8,8,9,9,10,10,11,11,12,12,13,13,14,14,15,15,16,16,17,17,18,18,19,19,20,20,21,21,22,22,23,23,24,24,25,25,26,26,27,27,28,28,29,29,30,30,31,31,32,32,33,33,34,34,35,35,36,36,37,37,38,38,39,39,40,40,41,41,43,43,44,44,45,45,46,46,47,47,49,49,50,50,51,51,52,52,55,55,56,56,57,57,60,60],"right_children":[2,4,6,8,10,12,14,16,18,20,22,24,26,28,30,32,34,36,38,40,42,44,46,48,50,52,54,56,58,60,62,64,66,68,70,72,74,76,78,80,82,84,-1,86,88,90,92,94,-1,96,98,100,102,-1,-1,104,106,108,-1,-1,110,-1,-1,-1,-1,-1,-1,-1,-1,-1,-1,-1,-1,-1,-1,-1,-1,-1,-1,-1,-1,-1,-1,-1,-1,-1,-1,-1,-1,-1,-1,-1,-1,-1,-1,-1,-1,-1,-1,-1,-1,-1,-1,-1,-1,-1,-1,-1,-1,-1,-1],"split_conditions":[4.94876E0,4.4127984E0,5.3752785E0,3.988984E0,3E0,4E0,1E0,3E0,2E0,4.6151204E0,5E0,3E0,1E0,5.90277E0,5.655992E0,3.6888795E0,3.465736E0,5E0,1E0,4.6051702E0,1E0,4.8121843E0,4.7706847E0,1E0,1E0,-8.618639E0,5.236442E0,3E0,9E0,4E0,3E0,2E0,3E0,3.3672957E0,3.5695326E0,3E0,4.1108737E0,-8.617993E0,4.26268E0,5E0,1E0,5E0,-2.9141746E-2,1E0,3E0,-8.660143E0,4E0,4.955827E0,4.784434E-2,1E0,1E0,5E0,5.198497E0,3.2260776E-2,-2.421482E-3,5.560682E0,5E0,7E0,-1.0254019E-2,5.6990575E-2,5E0,6.87791E-2,2.8447622E-2,-2.0457491E-2,-8.041667E-3,-1.120341E-2,9.996292E-3,6.415729E-3,3.4032956E-2,-4.723983E-2,-4.005334E-3,-1.395581E-3,-3.0584175E-2,2.5639813E-3,1.2523035E-2,3.0826686E-3,-8.115633E-3,-2.7451585E-3,1.0762229E-2,2.535019E-3,1.2163298E-2,-4.801077E-3,-1.4852719E-2,1.3230655E-2,2.4424769E-2,-4.0491805E-3,6.7562554E-3,1.0305456E-3,2.4160696E-2,1.5543296E-2,9.955715E-4,1.965124E-2,5.1424075E-3,3.3938374E-2,8.928902E-3,2.8621338E-2,4.228974E-2,9.300545E-3,-1.2321727E-2,7.967464E-3,3.3120144E-2,5.3972653E-3,1.1880867E-2,2.094315E-2,3.8050834E-2,-6.6972664E-3,3.068117E-2,1.1074593E-4,4.2702008E-2,3.894493E-3,2.8371729E-2],"split_indices":[0,0,0,0,1,1,12,1,1,0,6,6,13,0,0,0,0,6,21,0,3,0,0,12,12,8,0,6,1,1,6,1,3,0,0,6,0,8,0,6,11,6,0,13,3,8,1,0,0,11,11,1,0,0,0,0,1,1,0,0,1,0,0,0,0,0,0,0,0,0,0,0,0,0,0,0,0,0,0,0,0,0,0,0,0,0,0,0,0,0,0,0,0,0,0,0,0,0,0,0,0,0,0,0,0,0,0,0,0,0,0],"split_type":[0,0,0,0,0,0,0,0,0,0,0,0,0,0,0,0,0,0,0,0,0,0,0,0,0,0,0,0,0,0,0,0,0,0,0,0,0,0,0,0,0,0,0,0,0,0,0,0,0,0,0,0,0,0,0,0,0,0,0,0,0,0,0,0,0,0,0,0,0,0,0,0,0,0,0,0,0,0,0,0,0,0,0,0,0,0,0,0,0,0,0,0,0,0,0,0,0,0,0,0,0,0,0,0,0,0,0,0,0,0,0],"sum_hessian":[6.015E3,4.943E3,1.072E3,2.086E3,2.857E3,8.41E2,2.31E2,6.35E2,1.451E3,4E2,2.457E3,2.28E2,6.13E2,2.01E2,3E1,5.67E2,6.8E1,1.58E2,1.293E3,2.11E2,1.89E2,1.802E3,6.55E2,1.51E2,7.7E1,5.93E2,2E1,1.8E2,2.1E1,1.7E1,1.3E1,1.68E2,3.99E2,1.5E1,5.3E1,9.5E1,6.3E1,1.267E3,2.6E1,1.99E2,1.2E1,1.84E2,5E0,1.421E3,3.81E2,4.23E2,2.32E2,1.45E2,6E0,7.1E1,6E0,3E1,5.63E2,1.7E1,3E0,1.41E2,3.9E1,1.7E1,4E0,3E0,1.4E1,9E0,4E0,1.11E2,5.7E1,3.94E2,5E0,9E0,6E0,3E0,5E1,8.9E1,6E0,3.2E1,3.1E1,4.6E1,1.221E3,6E0,2E1,1E2,9.9E1,7E0,5E0,1.2E2,6.4E1,1.364E3,5.7E1,3.69E2,1.2E1,1.3E1,4.1E2,8.6E1,1.46E2,6E0,1.39E2,3.3E1,3.8E1,3E0,3E0,1.6E1,1.4E1,4.15E2,1.48E2,7.3E1,6.8E1,1.7E1,2.2E1,1.2E1,5E0,5E0,9E0],"tree_param":{"num_deleted":"0","num_feature":"31","num_nodes":"111","size_leaf_vector":"1"}},{"base_weights":[1.3137844E-3,-5.9615318E-2,1.09245084E-1,-1.0402794E-1,-2.3251954E-2,7.092483E-2,2.294276E-1,-1.406162E-1,-8.458798E-2,7.459012E-2,-4.6657767E-2,1.5812892E-1,2.5968406E-2,2.0608479E-1,4.3587118E-1,-1.56499E-1,-1.5130685E-2,6.412182E-3,-9.801021E-2,4.557219E-2,1.6279979E-1,6.666501E-2,-5.1371794E-2,1.12554E-1,2.496079E-1,2.93725E-1,1.5677588E-2,1.7451917E-1,3.4731427E-1,-0E0,4.6424296E-1,-1.756961E-1,-9.142062E-2,4.587818E-2,-1.2164066E-1,2.1756189E-2,-1.4455006E-1,-1.0244185E-1,3.9306376E-2,2.1496294E-3,1.1164836E-1,1.0859405E-1,2.7672243E-1,1.0379208E-1,-7.681025E-2,-5.3681582E-2,1.5496255E-1,9.1380015E-2,4.4552597E-1,1.940898E-1,3.049427E-1,2.4481003E-1,3.8005244E-2,1.0444195E-2,2.2436807E-2,1.2562023E-1,2.8948948E-1,3.0664778E-1,5.5031855E-2,4.0082473E-1,5.870154E-1,-1.7027033E-2,-1.1751969E-2,-9.142777E-3,1.61855E-2,-1.6569754E-4,2.9325565E-2,-1.1762657E-2,-0E0,-5.6662835E-4,1.1200822E-2,-1.5498155E-2,-3.0578028E-3,1.3218295E-2,-8.420075E-3,-2.4823342E-3,1.8063722E-2,-1.2412763E-3,1.1319855E-2,1.0242268E-2,-1.6776254E-2,3.5832773E-3,2.0868978E-2,9.214792E-3,2.7471852E-2,2.202346E-3,2.0277554E-2,-1.116588E-2,-0E0,-4.4268174E-3,1.6765986E-2,8.5387524E-4,1.7430747E-2,4.504558E-3,2.5947507E-2,1.6057191E-2,6.690848E-2,1.2493536E-2,3.5054922E-2,1.7538197E-2,3.444138E-2,-1.1779098E-3,2.1890158E-2,-6.8011973E-4,3.4344175E-3,7.6101255E-3,2.5879292E-2,3.1901937E-2,8.672574E-3,2.6069745E-2,-1.5358032E-3,1.3834287E-2,4.5559615E-2,7.0715904E-2,2.1690165E-3],"categories":[],"categories_nodes":[],"categories_segments":[],"categories_sizes":[],"default_left":[0,0,0,0,0,0,0,0,0,0,0,0,0,0,0,0,0,0,0,0,0,0,0,0,0,0,0,0,0,0,0,0,0,0,0,0,0,0,0,0,0,0,0,0,0,0,0,0,0,0,0,0,0,0,0,0,0,0,0,0,0,0,0,0,0,0,0,0,0,0,0,0,0,0,0,0,0,0,0,0,0,0,0,0,0,0,0,0,0,0,0,0,0,0,0,0,0,0,0,0,0,0,0,0,0,0,0,0,0,0,0,0,0,0,0],"id":16,"left_children":[1,3,5,7,9,11,13,15,17,19,21,23,25,27,29,31,33,35,37,39,41,43,45,47,49,51,53,55,57,-1,59,61,63,65,67,69,71,73,75,77,79,81,83,85,87,89,91,93,95,97,99,101,-1,103,-1,105,107,109,-1,111,113,-1,-1,-1,-1,-1,-1,-1,-1,-1,-1,-1,-1,-1,-1,-1,-1,-1,-1,-1,-1,-1,-1,-1,-1,-1,-1,-1,-1,-1,-1,-1,-1,-1,-1,-1,-1,-1,-1,-1,-1,-1,-1,-1,-1,-1,-1,-1,-1,-1,-1,-1,-1,-1,-1],"loss_changes":[3.9652554E1,6.2074203E0,9.975098E0,1.1982231E0,4.857932E0,6.4539585E0,2.3759384E0,1.1723194E0,1.3973293E0,1.0186453E0,9.169915E-1,2.274581E0,2.9733891E0,2.0002956E0,6.8140316E-1,6.193638E-1,4.6152255E-1,3.290549E-1,6.1340046E-1,8.778311E-1,5.48944E-1,3.7289396E-1,7.826557E-1,2.5635762E0,4.5924568E-1,1.665225E-1,1.4271338E0,2.1146755E0,8.668833E-1,0E0,4.744053E-2,3.6806965E-1,8.471128E-1,7.137953E-1,6.928635E-2,4.7126928E-1,3.737545E-2,7.339821E-1,4.3310654E-1,4.8005E-1,6.6085696E-1,6.3781303E-1,2.4847698E-1,5.9273666E-1,7.324869E-2,7.053237E-1,1.3823935E-1,2.852459E0,1.8333731E0,7.607372E-1,8.0937386E-1,2.8420424E-1,0E0,6.40204E-1,0E0,1.5926967E0,2.1818466E0,5.255203E-1,0E0,1.211092E0,2.2124815E0,0E0,0E0,0E0,0E0,0E0,0E0,0E0,0E0,0E0,0E0,0E0,0E0,0E0,0E0,0E0,0E0,0E0,0E0,0E0,0E0,0E0,0E0,0E0,0E0,0E0,0E0,0E0,0E0,0E0,0E0,0E0,0E0,0E0,0E0,0E0,0E0,0E0,0E0,0E0,0E0,0E0,0E0,0E0,0E0,0E0,0E0,0E0,0E0,0E0,0E0,0E0,0E0,0E0,0E0],"parents":[2147483647,0,0,1,1,2,2,3,3,4,4,5,5,6,6,7,7,8,8,9,9,10,10,11,11,12,12,13,13,14,14,15,15,16,16,17,17,18,18,19,19,20,20,21,21,22,22,23,23,24,24,25,25,26,26,27,27,28,28,30,30,31,31,32,32,33,33,34,34,35,35,36,36,37,37,38,38,39,39,40,40,41,41,42,42,43,43,44,44,45,45,46,46,47,47,48,48,49,49,50,50,51,51,53,53,55,55,56,56,57,57,59,59,60,60],"right_children":[2,4,6,8,10,12,14,16,18,20,22,24,26,28,30,32,34,36,38,40,42,44,46,48,50,52,54,56,58,-1,60,62,64,66,68,70,72,74,76,78,80,82,84,86,88,90,92,94,96,98,100,102,-1,104,-1,106,108,110,-1,112,114,-1,-1,-1,-1,-1,-1,-1,-1,-1,-1,-1,-1,-1,-1,-1,-1,-1,-1,-1,-1,-1,-1,-1,-1,-1,-1,-1,-1,-1,-1,-1,-1,-1,-1,-1,-1,-1,-1,-1,-1,-1,-1,-1,-1,-1,-1,-1,-1,-1,-1,-1,-1,-1,-1],"split_conditions":[4.727388E0,4.356709E0,5.164786E0,3.9702919E0,3E0,4E0,1E0,3E0,2E0,4.6151204E0,-8.622289E0,5E0,-8.622289E0,5.616771E0,5.17615E0,1E0,3.8286414E0,4.277083E0,1E0,5E0,1E0,4.115618E1,1E0,1E0,1E0,5.075174E0,1E0,1E0,5E0,-0E0,1E0,3.713572E0,1E0,3.7841897E0,4E0,4.2104964E0,4E0,4.019943E1,3E0,2E0,4.6051702E0,2E0,4.658711E0,4.1153538E1,5E0,2E0,4E0,2E0,4.836282E0,5.123964E0,4.8751974E0,3.870964E1,3.8005244E-2,4.94876E0,2.2436807E-2,2E0,5E0,1E1,5.5031855E-2,5E0,5E0,-1.7027033E-2,-1.1751969E-2,-9.142777E-3,1.61855E-2,-1.6569754E-4,2.9325565E-2,-1.1762657E-2,-0E0,-5.6662835E-4,1.1200822E-2,-1.5498155E-2,-3.0578028E-3,1.3218295E-2,-8.420075E-3,-2.4823342E-3,1.8063722E-2,-1.2412763E-3,1.1319855E-2,1.0242268E-2,-1.6776254E-2,3.5832773E-3,2.0868978E-2,9.214792E-3,2.7471852E-2,2.202346E-3,2.0277554E-2,-1.116588E-2,-0E0,-4.4268174E-3,1.6765986E-2,8.5387524E-4,1.7430747E-2,4.504558E-3,2.5947507E-2,1.6057191E-2,6.690848E-2,1.2493536E-2,3.5054922E-2,1.7538197E-2,3.444138E-2,-1.1779098E-3,2.1890158E-2,-6.8011973E-4,3.4344175E-3,7.6101255E-3,2.5879292E-2,3.1901937E-2,8.672574E-3,2.6069745E-2,-1.5358032E-3,1.3834287E-2,4.5559615E-2,7.0715904E-2,2.1690165E-3],"split_indices":[0,0,0,0,1,1,12,1,1,0,8,6,8,0,0,11,0,0,12,6,11,7,22,12,11,0,29,11,2,0,11,0,12,0,1,0,6,7,1,2,0,2,0,7,6,2,1,2,0,0,0,7,0,0,0,2,1,1,0,1,1,0,0,0,0,0,0,0,0,0,0,0,0,0,0,0,0,0,0,0,0,0,0,0,0,0,0,0,0,0,0,0,0,0,0,0,0,0,0,0,0,0,0,0,0,0,0,0,0,0,0,0,0,0,0],"split_type":[0,0,0,0,0,0,0,0,0,0,0,0,0,0,0,0,0,0,0,0,0,0,0,0,0,0,0,0,0,0,0,0,0,0,0,0,0,0,0,0,0,0,0,0,0,0,0,0,0,0,0,0,0,0,0,0,0,0,0,0,0,0,0,0,0,0,0,0,0,0,0,0,0,0,0,0,0,0,0,0,0,0,0,0,0,0,0,0,0,0,0,0,0,0,0,0,0,0,0,0,0,0,0,0,0,0,0,0,0,0,0,0,0,0,0],"sum_hessian":[6.027E3,3.852E3,2.175E3,1.732E3,2.12E3,1.651E3,5.24E2,5.97E2,1.135E3,4.08E2,1.712E3,5.6E2,1.091E3,4.73E2,5.1E1,5.29E2,6.8E1,1.45E2,9.9E2,3.09E2,9.9E1,6.7E1,1.645E3,3.76E2,1.84E2,3.9E1,1.052E3,3.89E2,8.4E1,3E0,4.8E1,4.06E2,1.23E2,4.3E1,2.5E1,1.33E2,1.2E1,9.6E2,3E1,1.88E2,1.21E2,6.9E1,3E1,5.4E1,1.3E1,1.628E3,1.7E1,3.55E2,2.1E1,9.5E1,8.9E1,3.3E1,6E0,1.033E3,1.9E1,2.75E2,1.14E2,7.7E1,7E0,3.5E1,1.3E1,1.73E2,2.33E2,1.15E2,8E0,3.8E1,5E0,2E1,5E0,1.07E2,2.6E1,7E0,5E0,9E0,9.51E2,2.2E1,8E0,1.67E2,2.1E1,1.16E2,5E0,5E1,1.9E1,1E1,2E1,3.7E1,1.7E1,7E0,6E0,1.619E3,9E0,6E0,1.1E1,3.1E2,4.5E1,1.4E1,7E0,8.4E1,1.1E1,5.5E1,3.4E1,3E0,3E1,6.51E2,3.82E2,2.4E2,3.5E1,7E1,4.4E1,7.3E1,4E0,1.6E1,1.9E1,8E0,5E0],"tree_param":{"num_deleted":"0","num_feature":"31","num_nodes":"115","size_leaf_vector":"1"}},{"base_weights":[2.937773E-3,-3.0157577E-2,1.5156119E-1,-7.6822884E-2,1.1892043E-2,1.1252731E-1,2.889206E-1,